0 1 1 100 0.0180979
1 1 1 100 0.981902
0 2 1 100 0.000241603
1 2 1 100 0.999758
0 3 1 100 0.0126739
1 3 1 100 0.987326
0 4 1 100 1.43673e-05
1 4 1 100 0.999986
1 5 1 100 1
0 6 1 100 8.80339e-06
1 6 1 100 0.999991
0 1 2 100 0.00999983
1 1 2 100 0.425723
2 1 2 100 0.564277
0 2 2 100 0.0181373
1 2 2 100 0.58887
2 2 2 100 0.392993
0 3 2 100 0.0280265
1 3 2 100 0.26274
2 3 2 100 0.709233
0 4 2 100 0.0263127
1 4 2 100 0.577309
2 4 2 100 0.396379
0 5 2 100 0.222401
1 5 2 100 0.561697
2 5 2 100 0.215902
1 6 2 100 0.5
2 6 2 100 0.5
1 7 2 100 1
0 1 3 100 0.0174176
1 1 3 100 0.530835
2 1 3 100 0.0380353
3 1 3 100 0.413712
0 2 3 100 0.0118707
1 2 3 100 0.368185
2 2 3 100 0.436416
3 2 3 100 0.183528
0 3 3 100 0.0144677
1 3 3 100 0.175693
2 3 3 100 0.142988
3 3 3 100 0.666851
0 4 3 100 0.0276915
1 4 3 100 0.149657
2 4 3 100 0.174891
3 4 3 100 0.647761
0 5 3 100 0.0334256
1 5 3 100 0.260513
2 5 3 100 0.166887
3 5 3 100 0.539174
0 6 3 100 0.0265672
1 6 3 100 0.190539
2 6 3 100 0.0856682
3 6 3 100 0.697226
0 7 3 100 0.0366698
2 7 3 100 0.131138
3 7 3 100 0.832192
0 8 3 100 0.0104926
1 8 3 100 0.5
3 8 3 100 0.489507
3 9 3 100 1
3 10 3 100 1
0 1 4 100 0.0175818
1 1 4 100 0.561222
2 1 4 100 0.0961264
3 1 4 100 0.0256725
4 1 4 100 0.299397
0 2 4 100 0.0142497
1 2 4 100 0.127472
2 2 4 100 0.442061
3 2 4 100 0.252802
4 2 4 100 0.163416
0 3 4 100 0.00915695
1 3 4 100 0.262624
2 3 4 100 0.138116
3 3 4 100 0.282351
4 3 4 100 0.307752
0 4 4 100 0.015037
1 4 4 100 0.110535
2 4 4 100 0.0840589
3 4 4 100 0.351423
4 4 4 100 0.438946
0 5 4 100 0.02825
1 5 4 100 0.122154
2 5 4 100 0.0735749
3 5 4 100 0.297364
4 5 4 100 0.478657
0 6 4 100 0.0573374
1 6 4 100 0.110244
2 6 4 100 0.0124168
3 6 4 100 0.263206
4 6 4 100 0.556796
0 7 4 100 0.0626781
1 7 4 100 0.220087
3 7 4 100 0.139513
4 7 4 100 0.577722
0 8 4 100 7.62848e-05
1 8 4 100 0.0716847
2 8 4 100 0.071169
3 8 4 100 0.214286
4 8 4 100 0.642784
0 9 4 100 8.15207e-05
2 9 4 100 0.333333
3 9 4 100 0.333252
4 9 4 100 0.333333
3 10 4 100 0.5
4 10 4 100 0.5
0 1 5 100 0.018777
1 1 5 100 0.591105
2 1 5 100 0.0775229
3 1 5 100 0.0502038
4 1 5 100 0.0158243
5 1 5 100 0.246567
0 2 5 100 0.013997
1 2 5 100 0.11171
2 2 5 100 0.467832
3 2 5 100 0.222753
4 2 5 100 0.0830846
5 2 5 100 0.100623
0 3 5 100 0.0139391
1 3 5 100 0.190226
2 3 5 100 0.0954012
3 3 5 100 0.296315
4 3 5 100 0.0952841
5 3 5 100 0.308834
0 4 5 100 0.0157007
1 4 5 100 0.103557
2 4 5 100 0.0443747
3 4 5 100 0.343973
4 4 5 100 0.230645
5 4 5 100 0.261751
0 5 5 100 0.0138295
1 5 5 100 0.0666727
2 5 5 100 0.0432518
3 5 5 100 0.15975
4 5 5 100 0.270373
5 5 5 100 0.446124
0 6 5 100 0.0325214
1 6 5 100 0.0708891
2 6 5 100 0.0327496
3 6 5 100 0.148373
4 6 5 100 0.229401
5 6 5 100 0.486066
0 7 5 100 0.0127525
1 7 5 100 0.0465106
2 7 5 100 0.0224944
3 7 5 100 0.150849
4 7 5 100 0.22522
5 7 5 100 0.542174
0 8 5 100 0.0135814
2 8 5 100 1.09128e-05
3 8 5 100 0.329931
4 8 5 100 0.166833
5 8 5 100 0.489644
1 9 5 100 0.125
3 9 5 100 0.249999
4 9 5 100 0.125
5 9 5 100 0.500001
3 10 5 100 0.488978
5 10 5 100 0.511022
0 1 6 100 0.0234631
1 1 6 100 0.569601
2 1 6 100 0.0925927
3 1 6 100 0.0744467
4 1 6 100 0.0395225
5 1 6 100 0.0213812
6 1 6 100 0.178993
0 2 6 100 0.0201492
1 2 6 100 0.13932
2 2 6 100 0.422227
3 2 6 100 0.137816
4 2 6 100 0.0878929
5 2 6 100 0.108699
6 2 6 100 0.0838957
0 3 6 100 0.0164653
1 3 6 100 0.0980563
2 3 6 100 0.0845867
3 3 6 100 0.40428
4 3 6 100 0.160821
5 3 6 100 0.0685545
6 3 6 100 0.167236
0 4 6 100 0.0121008
1 4 6 100 0.13235
2 4 6 100 0.059947
3 4 6 100 0.145093
4 4 6 100 0.245378
5 4 6 100 0.139782
6 4 6 100 0.265348
0 5 6 100 0.0115273
1 5 6 100 0.0808091
2 5 6 100 0.0329796
3 5 6 100 0.139976
4 5 6 100 0.232968
5 5 6 100 0.269415
6 5 6 100 0.232325
0 6 6 100 0.0206278
1 6 6 100 0.0407051
2 6 6 100 0.0165577
3 6 6 100 0.0925635
4 6 6 100 0.113863
5 6 6 100 0.306278
6 6 6 100 0.409405
0 7 6 100 0.0133241
1 7 6 100 0.0256726
2 7 6 100 0.00976205
3 7 6 100 0.0438542
4 7 6 100 0.115902
5 7 6 100 0.276744
6 7 6 100 0.514741
0 8 6 100 0.0365653
1 8 6 100 0.0298323
2 8 6 100 0.0204936
3 8 6 100 0.0504439
4 8 6 100 0.144109
5 8 6 100 0.256422
6 8 6 100 0.462134
0 9 6 100 0.0985633
1 9 6 100 0.0764376
2 9 6 100 0.0257371
3 9 6 100 0.0677155
4 9 6 100 0.0494064
5 9 6 100 0.225087
6 9 6 100 0.457053
0 10 6 100 0.147988
1 10 6 100 0.0014974
2 10 6 100 0.0957527
3 10 6 100 0.16511
4 10 6 100 0.172663
5 10 6 100 0.000329149
6 10 6 100 0.416659
0 11 6 100 7.04132e-06
3 11 6 100 0.124993
4 11 6 100 0.124999
5 11 6 100 0.125
6 11 6 100 0.625
4 12 6 100 0.499999
6 12 6 100 0.500001
0 13 6 100 0.276325
5 13 6 100 0.723675
0 14 6 100 0.152149
5 14 6 100 0.847851
6 15 6 100 1
0 1 7 100 0.0181927
1 1 7 100 0.584784
2 1 7 100 0.104987
3 1 7 100 0.0797674
4 1 7 100 0.0351589
5 1 7 100 0.0297396
6 1 7 100 0.0157105
7 1 7 100 0.13166
0 2 7 100 0.0244782
1 2 7 100 0.155639
2 2 7 100 0.445532
3 2 7 100 0.119289
4 2 7 100 0.0712853
5 2 7 100 0.0835556
6 2 7 100 0.0434696
7 2 7 100 0.0567512
0 3 7 100 0.0216883
1 3 7 100 0.0760062
2 3 7 100 0.105824
3 3 7 100 0.38473
4 3 7 100 0.173296
5 3 7 100 0.0812035
6 3 7 100 0.0382499
7 3 7 100 0.119003
0 4 7 100 0.0152088
1 4 7 100 0.081142
2 4 7 100 0.0494598
3 4 7 100 0.144136
4 4 7 100 0.272555
5 4 7 100 0.183096
6 4 7 100 0.0722709
7 4 7 100 0.182131
0 5 7 100 0.0176048
1 5 7 100 0.0629729
2 5 7 100 0.0256105
3 5 7 100 0.112435
4 5 7 100 0.106777
5 5 7 100 0.281233
6 5 7 100 0.161498
7 5 7 100 0.231869
0 6 7 100 0.0206245
1 6 7 100 0.0390206
2 6 7 100 0.0199449
3 6 7 100 0.0545836
4 6 7 100 0.0995092
5 6 7 100 0.242205
6 6 7 100 0.24114
7 6 7 100 0.282972
0 7 7 100 0.0229619
1 7 7 100 0.028558
2 7 7 100 0.00773004
3 7 7 100 0.0298265
4 7 7 100 0.0630052
5 7 7 100 0.152395
6 7 7 100 0.265697
7 7 7 100 0.429827
0 8 7 100 0.0355858
1 8 7 100 0.0217886
2 8 7 100 0.0125404
3 8 7 100 0.0302209
4 8 7 100 0.0752329
5 8 7 100 0.160093
6 8 7 100 0.212264
7 8 7 100 0.452275
0 9 7 100 0.0408332
1 9 7 100 0.0171534
2 9 7 100 0.0346969
3 9 7 100 0.0363534
4 9 7 100 0.0470167
5 9 7 100 0.0831974
6 9 7 100 0.246164
7 9 7 100 0.494585
0 10 7 100 0.0469866
1 10 7 100 0.000743036
2 10 7 100 0.0086584
3 10 7 100 0.0492249
4 10 7 100 0.0658222
5 10 7 100 0.207949
6 10 7 100 0.185986
7 10 7 100 0.434629
0 11 7 100 0.0599839
1 11 7 100 0.00349717
2 11 7 100 0.0191764
3 11 7 100 0.000333321
4 11 7 100 0.0699042
5 11 7 100 0.000218431
6 11 7 100 0.392635
7 11 7 100 0.454251
0 12 7 100 0.118583
2 12 7 100 2.2239e-05
3 12 7 100 0.166667
4 12 7 100 0.0497167
5 12 7 100 0.221624
6 12 7 100 0.000230254
7 12 7 100 0.443157
3 13 7 100 0.333333
5 13 7 100 0.333333
7 13 7 100 0.333333
7 14 7 100 1
0 1 8 100 0.0211229
1 1 8 100 0.560815
2 1 8 100 0.0918042
3 1 8 100 0.10812
4 1 8 100 0.0514379
5 1 8 100 0.0262537
6 1 8 100 0.0212813
7 1 8 100 0.0128969
8 1 8 100 0.106268
0 2 8 100 0.0188571
1 2 8 100 0.164592
2 2 8 100 0.425245
3 2 8 100 0.140246
4 2 8 100 0.069343
5 2 8 100 0.0580041
6 2 8 100 0.0367613
7 2 8 100 0.0447403
8 2 8 100 0.0422103
0 3 8 100 0.0167343
1 3 8 100 0.0812551
2 3 8 100 0.088868
3 3 8 100 0.36146
4 3 8 100 0.192688
5 3 8 100 0.122373
6 3 8 100 0.049755
7 3 8 100 0.0225808
8 3 8 100 0.064287
0 4 8 100 0.0109361
1 4 8 100 0.0595308
2 4 8 100 0.0391085
3 4 8 100 0.144479
4 4 8 100 0.265951
5 4 8 100 0.165543
6 4 8 100 0.12999
7 4 8 100 0.0414172
8 4 8 100 0.143044
0 5 8 100 0.0139389
1 5 8 100 0.0664926
2 5 8 100 0.0298512
3 5 8 100 0.0583685
4 5 8 100 0.100963
5 5 8 100 0.25723
6 5 8 100 0.195597
7 5 8 100 0.114273
8 5 8 100 0.163286
0 6 8 100 0.0157869
1 6 8 100 0.0350211
2 6 8 100 0.0129585
3 6 8 100 0.0380504
4 6 8 100 0.0594471
5 6 8 100 0.135534
6 6 8 100 0.257042
7 6 8 100 0.173292
8 6 8 100 0.272869
0 7 8 100 0.0255765
1 7 8 100 0.0218682
2 7 8 100 0.00930312
3 7 8 100 0.0209444
4 7 8 100 0.0375278
5 7 8 100 0.118625
6 7 8 100 0.208202
7 7 8 100 0.271555
8 7 8 100 0.286397
0 8 8 100 0.019232
1 8 8 100 0.0135552
2 8 8 100 0.0090129
3 8 8 100 0.0186787
4 8 8 100 0.0350289
5 8 8 100 0.0734397
6 8 8 100 0.115644
7 8 8 100 0.266158
8 8 8 100 0.449251
0 9 8 100 0.0465175
1 9 8 100 0.0116863
2 9 8 100 0.00767515
3 9 8 100 0.0188542
4 9 8 100 0.0253109
5 9 8 100 0.0625824
6 9 8 100 0.147923
7 9 8 100 0.198257
8 9 8 100 0.481194
0 10 8 100 0.0143187
2 10 8 100 0.000191548
3 10 8 100 1.57379e-05
4 10 8 100 4.69978e-05
5 10 8 100 0.0911241
6 10 8 100 0.177525
7 10 8 100 0.218274
8 10 8 100 0.498504
0 11 8 100 0.0387172
1 11 8 100 0.000963125
2 11 8 100 0.00259655
3 11 8 100 0.000430866
4 11 8 100 1.42178e-06
5 11 8 100 0.115212
6 11 8 100 0.109375
7 11 8 100 0.309614
8 11 8 100 0.42309
0 12 8 100 0.0408918
1 12 8 100 0.000115298
2 12 8 100 0.0937018
3 12 8 100 5.47879e-06
6 12 8 100 1.89924e-06
7 12 8 100 0.222368
8 12 8 100 0.642916
3 13 8 100 0.333333
8 13 8 100 0.666667
1 14 8 100 0.967915
8 14 8 100 0.0320853
0 1 9 100 0.0220671
1 1 9 100 0.594708
2 1 9 100 0.0993425
3 1 9 100 0.0861048
4 1 9 100 0.0590516
5 1 9 100 0.0382006
6 1 9 100 0.0136379
7 1 9 100 0.011161
8 1 9 100 0.00939594
9 1 9 100 0.0663308
0 2 9 100 0.0187992
1 2 9 100 0.15427
2 2 9 100 0.441356
3 2 9 100 0.144296
4 2 9 100 0.0802981
5 2 9 100 0.044522
6 2 9 100 0.0354431
7 2 9 100 0.027052
8 2 9 100 0.0261305
9 2 9 100 0.0278327
0 3 9 100 0.0158535
1 3 9 100 0.08444
2 3 9 100 0.104018
3 3 9 100 0.366585
4 3 9 100 0.181012
5 3 9 100 0.0953031
6 3 9 100 0.0619716
7 3 9 100 0.0279512
8 3 9 100 0.0155066
9 3 9 100 0.0473591
0 4 9 100 0.0160909
1 4 9 100 0.0532092
2 4 9 100 0.0369997
3 4 9 100 0.124636
4 4 9 100 0.291204
5 4 9 100 0.182203
6 4 9 100 0.113374
7 4 9 100 0.0604404
8 4 9 100 0.0290597
9 4 9 100 0.092783
0 5 9 100 0.0168639
1 5 9 100 0.0458577
2 5 9 100 0.0179206
3 5 9 100 0.0592653
4 5 9 100 0.0902431
5 5 9 100 0.251979
6 5 9 100 0.181187
7 5 9 100 0.13396
8 5 9 100 0.0712878
9 5 9 100 0.131435
0 6 9 100 0.0218584
1 6 9 100 0.0320434
2 6 9 100 0.010733
3 6 9 100 0.0286118
4 6 9 100 0.0474407
5 6 9 100 0.110313
6 6 9 100 0.22711
7 6 9 100 0.20249
8 6 9 100 0.130776
9 6 9 100 0.188625
0 7 9 100 0.0172753
1 7 9 100 0.0171738
2 7 9 100 0.00887371
3 7 9 100 0.0176726
4 7 9 100 0.0322931
5 7 9 100 0.0733965
6 7 9 100 0.135319
7 7 9 100 0.248059
8 7 9 100 0.195818
9 7 9 100 0.254119
0 8 9 100 0.0312877
1 8 9 100 0.0124734
2 8 9 100 0.00661909
3 8 9 100 0.0162657
4 8 9 100 0.0188205
5 8 9 100 0.0456781
6 8 9 100 0.102592
7 8 9 100 0.206212
8 8 9 100 0.242685
9 8 9 100 0.317367
0 9 9 100 0.0213956
1 9 9 100 0.0132643
2 9 9 100 0.00898601
3 9 9 100 0.0133412
4 9 9 100 0.0177396
5 9 9 100 0.0283083
6 9 9 100 0.0829101
7 9 9 100 0.126248
8 9 9 100 0.271621
9 9 9 100 0.416186
0 10 9 100 0.0309271
1 10 9 100 0.0145329
2 10 9 100 0.0107247
3 10 9 100 0.0144132
4 10 9 100 0.00413751
5 10 9 100 0.0320413
6 10 9 100 0.0790737
7 10 9 100 0.118141
8 10 9 100 0.271124
9 10 9 100 0.424884
0 11 9 100 0.0260175
1 11 9 100 5.11052e-05
2 11 9 100 6.28811e-05
3 11 9 100 0.0282314
4 11 9 100 0.00917173
5 11 9 100 0.0289213
6 11 9 100 0.0623522
7 11 9 100 0.119202
8 11 9 100 0.276708
9 11 9 100 0.449282
0 12 9 100 0.0393398
1 12 9 100 0.000128446
3 12 9 100 0.046179
4 12 9 100 0.0458398
5 12 9 100 0.0227324
6 12 9 100 0.0228577
7 12 9 100 0.17993
8 12 9 100 0.0992015
9 12 9 100 0.543791
0 13 9 100 0.163164
1 13 9 100 0.0555479
2 13 9 100 0.0556551
4 13 9 100 8.0543e-05
5 13 9 100 0.000513075
6 13 9 100 0.215444
7 13 9 100 0.00840502
8 13 9 100 0.167851
9 13 9 100 0.333339
0 14 9 100 0.000574009
2 14 9 100 0.00445154
3 14 9 100 0.250005
4 14 9 100 0.0991685
6 14 9 100 0.00289522
7 14 9 100 6.86409e-06
8 14 9 100 0.0217421
9 14 9 100 0.621157
0 15 9 100 0.000638157
2 15 9 100 0.199996
3 15 9 100 0.2
4 15 9 100 0.00132925
5 15 9 100 3.7715e-06
6 15 9 100 0.198005
7 15 9 100 0.200014
8 15 9 100 1.37555e-05
9 15 9 100 0.2
1 16 9 100 0.5
2 16 9 100 0.00404007
5 16 9 100 0.49584
6 16 9 100 0.000119887
0 17 9 100 0.000130207
4 17 9 100 0.999188
5 17 9 100 0.000681888
5 18 9 100 0.940023
9 18 9 100 0.0599775
5 19 9 100 1
0 1 10 100 0.0215339
1 1 10 100 0.607302
2 1 10 100 0.0880772
3 1 10 100 0.0823845
4 1 10 100 0.0507796
5 1 10 100 0.0482218
6 1 10 100 0.019106
7 1 10 100 0.0150733
8 1 10 100 0.011096
9 1 10 100 0.0100832
10 1 10 100 0.0463425
0 2 10 100 0.018942
1 2 10 100 0.135519
2 2 10 100 0.436925
3 2 10 100 0.149797
4 2 10 100 0.0895928
5 2 10 100 0.0522967
6 2 10 100 0.0330103
7 2 10 100 0.0207918
8 2 10 100 0.0184892
9 2 10 100 0.0236201
10 2 10 100 0.021016
0 3 10 100 0.0150772
1 3 10 100 0.0927362
2 3 10 100 0.110038
3 3 10 100 0.37401
4 3 10 100 0.164259
5 3 10 100 0.103517
6 3 10 100 0.0553084
7 3 10 100 0.0303578
8 3 10 100 0.0181111
9 3 10 100 0.00809609
10 3 10 100 0.0284891
0 4 10 100 0.0157945
1 4 10 100 0.0509755
2 4 10 100 0.045156
3 4 10 100 0.123136
4 4 10 100 0.281108
5 4 10 100 0.193509
6 4 10 100 0.114734
7 4 10 100 0.0646263
8 4 10 100 0.0394691
9 4 10 100 0.0147592
10 4 10 100 0.0567333
0 5 10 100 0.0219341
1 5 10 100 0.0356931
2 5 10 100 0.0201672
3 5 10 100 0.0552062
4 5 10 100 0.0937353
5 5 10 100 0.248858
6 5 10 100 0.208509
7 5 10 100 0.111381
8 5 10 100 0.0714699
9 5 10 100 0.0410091
10 5 10 100 0.0920369
0 6 10 100 0.0175454
1 6 10 100 0.0268767
2 6 10 100 0.015325
3 6 10 100 0.0271607
4 6 10 100 0.0347498
5 6 10 100 0.0947386
6 6 10 100 0.215001
7 6 10 100 0.196736
8 6 10 100 0.146389
9 6 10 100 0.0842412
10 6 10 100 0.141237
0 7 10 100 0.0144363
1 7 10 100 0.0179121
2 7 10 100 0.00880044
3 7 10 100 0.0143215
4 7 10 100 0.0205324
5 7 10 100 0.0551659
6 7 10 100 0.108452
7 7 10 100 0.234984
8 7 10 100 0.207401
9 7 10 100 0.124124
10 7 10 100 0.19387
0 8 10 100 0.0185511
1 8 10 100 0.00811803
2 8 10 100 0.00576611
3 8 10 100 0.00872145
4 8 10 100 0.0123887
5 8 10 100 0.0296376
6 8 10 100 0.058556
7 8 10 100 0.140179
8 8 10 100 0.249843
9 8 10 100 0.22054
10 8 10 100 0.247699
0 9 10 100 0.0273314
1 9 10 100 0.00534356
2 9 10 100 0.00399861
3 9 10 100 0.0057549
4 9 10 100 0.00735589
5 9 10 100 0.0184603
6 9 10 100 0.0473835
7 9 10 100 0.093469
8 9 10 100 0.193997
9 9 10 100 0.251599
10 9 10 100 0.345307
0 10 10 100 0.0371404
1 10 10 100 0.00339016
2 10 10 100 0.0138398
3 10 10 100 0.0133742
4 10 10 100 0.00171163
5 10 10 100 0.0064774
6 10 10 100 0.0228345
7 10 10 100 0.0826899
8 10 10 100 0.128732
9 10 10 100 0.258402
10 10 10 100 0.431408
0 11 10 100 0.0124186
1 11 10 100 0.0114409
2 11 10 100 0.0125116
3 11 10 100 0.0116996
4 11 10 100 0.0148671
5 11 10 100 0.0154399
6 11 10 100 0.0386809
7 11 10 100 0.0613229
8 11 10 100 0.125448
9 11 10 100 0.19505
10 11 10 100 0.50112
0 12 10 100 0.0601554
1 12 10 100 0.0175794
2 12 10 100 0.0111032
3 12 10 100 0.0324704
4 12 10 100 0.0239751
5 12 10 100 0.0211827
6 12 10 100 0.0914513
7 12 10 100 0.0691966
8 12 10 100 0.12093
9 12 10 100 0.22582
10 12 10 100 0.326135
0 13 10 100 0.0740169
1 13 10 100 0.000101043
2 13 10 100 0.0512639
3 13 10 100 0.0769231
4 13 10 100 0.00719721
5 13 10 100 0.0511818
6 13 10 100 0.0515657
7 13 10 100 0.0754684
8 13 10 100 0.0738831
9 13 10 100 0.102589
10 13 10 100 0.43581
0 14 10 100 0.175977
1 14 10 100 0.0841967
2 14 10 100 3.3887e-06
3 14 10 100 5.80748e-05
4 14 10 100 0.0924377
5 14 10 100 0.0416667
6 14 10 100 0.0103078
7 14 10 100 0.0416319
8 14 10 100 0.125
9 14 10 100 0.138614
10 14 10 100 0.290107
0 15 10 100 0.0652748
2 15 10 100 0.000230506
3 15 10 100 0.166667
4 15 10 100 0.0982745
5 15 10 100 0.0681395
6 15 10 100 0.000130424
7 15 10 100 0.101067
8 15 10 100 0.0833347
9 15 10 100 0.0835512
10 15 10 100 0.33333
0 16 10 100 0.00443177
1 16 10 100 0.166667
5 16 10 100 0.166666
8 16 10 100 0.495569
10 16 10 100 0.166667
0 17 10 100 0.235469
1 17 10 100 0.00176034
3 17 10 100 0.252567
4 17 10 100 0.0230177
5 17 10 100 5.87326e-05
7 17 10 100 0.00641945
8 17 10 100 6.65038e-05
10 17 10 100 0.480641
0 18 10 100 0.245034
1 18 10 100 0.249976
2 18 10 100 0.000240495
3 18 10 100 2.651e-05
4 18 10 100 0.254665
9 18 10 100 0.250058
0 19 10 100 0.000387183
2 19 10 100 0.333333
3 19 10 100 0.333333
4 19 10 100 0.331593
7 19 10 100 0.0013527
0 20 10 100 0.331758
3 20 10 100 1.27957e-05
4 20 10 100 0.00155598
6 20 10 100 9.46102e-06
7 20 10 100 7.51693e-05
8 20 10 100 0.666514
9 20 10 100 7.44253e-05
0 21 10 100 0.0461822
3 21 10 100 0.953407
6 21 10 100 0.000399235
9 21 10 100 1.12806e-05
7 22 10 100 0.5
9 22 10 100 0.5
10 23 10 100 1
8 24 10 100 1
0 1 11 100 0.0255606
1 1 11 100 0.635396
2 1 11 100 0.0880416
3 1 11 100 0.0721979
4 1 11 100 0.0375613
5 1 11 100 0.0374669
6 1 11 100 0.0316263
7 1 11 100 0.015033
8 1 11 100 0.00849782
9 1 11 100 0.00772751
10 1 11 100 0.00825774
11 1 11 100 0.0326332
0 2 11 100 0.0245667
1 2 11 100 0.120565
2 2 11 100 0.449736
3 2 11 100 0.153825
4 2 11 100 0.0901378
5 2 11 100 0.0526354
6 2 11 100 0.0305118
7 2 11 100 0.0189845
8 2 11 100 0.0159264
9 2 11 100 0.0137128
10 2 11 100 0.0154831
11 2 11 100 0.0139148
0 3 11 100 0.0245958
1 3 11 100 0.0823825
2 3 11 100 0.12026
3 3 11 100 0.369481
4 3 11 100 0.174041
5 3 11 100 0.094347
6 3 11 100 0.0539033
7 3 11 100 0.0230145
8 3 11 100 0.0191429
9 3 11 100 0.014392
10 3 11 100 0.0088245
11 3 11 100 0.0156151
0 4 11 100 0.0181824
1 4 11 100 0.0472654
2 4 11 100 0.0403819
3 4 11 100 0.127123
4 4 11 100 0.282498
5 4 11 100 0.18358
6 4 11 100 0.126293
7 4 11 100 0.0719512
8 4 11 100 0.0371563
9 4 11 100 0.0178958
10 4 11 100 0.0118043
11 4 11 100 0.0358682
0 5 11 100 0.0188967
1 5 11 100 0.0249432
2 5 11 100 0.0245061
3 5 11 100 0.0523318
4 5 11 100 0.0962469
5 5 11 100 0.248487
6 5 11 100 0.210312
7 5 11 100 0.13859
8 5 11 100 0.0564026
9 5 11 100 0.0498219
10 5 11 100 0.024677
11 5 11 100 0.0547846
0 6 11 100 0.0150195
1 6 11 100 0.0193779
2 6 11 100 0.0131421
3 6 11 100 0.0281416
4 6 11 100 0.0441076
5 6 11 100 0.0906898
6 6 11 100 0.21033
7 6 11 100 0.210184
8 6 11 100 0.140864
9 6 11 100 0.0872533
10 6 11 100 0.0518312
11 6 11 100 0.089058
0 7 11 100 0.0168875
1 7 11 100 0.0169871
2 7 11 100 0.0105648
3 7 11 100 0.016099
4 7 11 100 0.0168186
5 7 11 100 0.0501843
6 7 11 100 0.0879884
7 7 11 100 0.211348
8 7 11 100 0.199767
9 7 11 100 0.14353
10 7 11 100 0.0861692
11 7 11 100 0.143657
0 8 11 100 0.0147469
1 8 11 100 0.00776556
2 8 11 100 0.00901003
3 8 11 100 0.0154935
4 8 11 100 0.0145406
5 8 11 100 0.0296836
6 8 11 100 0.0420544
7 8 11 100 0.10005
8 8 11 100 0.214852
9 8 11 100 0.207167
10 8 11 100 0.145893
11 8 11 100 0.198744
0 9 11 100 0.0279542
1 9 11 100 0.00926087
2 9 11 100 0.00504388
3 9 11 100 0.00858756
4 9 11 100 0.00831961
5 9 11 100 0.0142794
6 9 11 100 0.0264932
7 9 11 100 0.060369
8 9 11 100 0.140575
9 9 11 100 0.22605
10 9 11 100 0.20848
11 9 11 100 0.264587
0 10 11 100 0.0213442
1 10 11 100 0.00603764
2 10 11 100 0.0058182
3 10 11 100 0.00810856
4 10 11 100 0.00725988
5 10 11 100 0.00966336
6 10 11 100 0.0140733
7 10 11 100 0.0389377
8 10 11 100 0.102252
9 10 11 100 0.199871
10 10 11 100 0.250107
11 10 11 100 0.336528
0 11 11 100 0.0293295
1 11 11 100 0.00731475
2 11 11 100 0.00731144
3 11 11 100 0.000172665
4 11 11 100 0.00673379
5 11 11 100 0.00563012
6 11 11 100 0.0145028
7 11 11 100 0.0415772
8 11 11 100 0.0776991
9 11 11 100 0.15924
10 11 11 100 0.252664
11 11 11 100 0.397825
0 12 11 100 0.0218799
1 12 11 100 0.00414122
2 12 11 100 0.000892647
3 12 11 100 0.0151466
4 12 11 100 0.00873738
5 12 11 100 0.00388983
6 12 11 100 0.0154209
7 12 11 100 0.0438077
8 12 11 100 0.06108
9 12 11 100 0.126722
10 12 11 100 0.256352
11 12 11 100 0.44193
0 13 11 100 0.0192045
1 13 11 100 0.00908495
2 13 11 100 0.00909092
3 13 11 100 0.0268963
4 13 11 100 0.00909092
5 13 11 100 0.000549232
6 13 11 100 0.00902786
7 13 11 100 0.0365355
8 13 11 100 0.0527712
9 13 11 100 0.19085
10 13 11 100 0.253421
11 13 11 100 0.383477
0 14 11 100 0.000331523
1 14 11 100 0.020835
2 14 11 100 0.0208333
3 14 11 100 0.0208334
4 14 11 100 0.0208355
5 14 11 100 0.0416667
6 14 11 100 2.26611e-06
7 14 11 100 0.0416667
8 14 11 100 0.104035
9 14 11 100 0.145785
10 14 11 100 0.166668
11 14 11 100 0.416508
0 15 11 100 0.00119951
1 15 11 100 2.42418e-06
3 15 11 100 0.0406319
4 15 11 100 0.00184004
5 15 11 100 1.34882e-05
6 15 11 100 0.0440203
7 15 11 100 0.000199253
8 15 11 100 3.64856e-06
9 15 11 100 0.12501
10 15 11 100 0.204116
11 15 11 100 0.582964
0 16 11 100 0.01356
1 16 11 100 0.0334259
2 16 11 100 1.41707e-05
3 16 11 100 0.0906406
5 16 11 100 0.000139227
8 16 11 100 0.0909093
9 16 11 100 0.0437861
10 16 11 100 0.0908737
11 16 11 100 0.636651
5 17 11 100 0.00637886
10 17 11 100 0.993607
11 17 11 100 1.36839e-05
0 1 12 100 0.0277302
1 1 12 100 0.646846
2 1 12 100 0.0970046
3 1 12 100 0.070084
4 1 12 100 0.0456694
5 1 12 100 0.0297988
6 1 12 100 0.0153937
7 1 12 100 0.0205893
8 1 12 100 0.0102832
9 1 12 100 0.00534608
10 1 12 100 0.00597075
11 1 12 100 0.00338701
12 1 12 100 0.0218965
0 2 12 100 0.0173072
1 2 12 100 0.120028
2 2 12 100 0.46311
3 2 12 100 0.156254
4 2 12 100 0.0876046
5 2 12 100 0.0494436
6 2 12 100 0.0325987
7 2 12 100 0.0135821
8 2 12 100 0.0125651
9 2 12 100 0.0103678
10 2 12 100 0.00885196
11 2 12 100 0.0140271
12 2 12 100 0.01426
0 3 12 100 0.0241867
1 3 12 100 0.0606543
2 3 12 100 0.133233
3 3 12 100 0.380023
4 3 12 100 0.158641
5 3 12 100 0.0986695
6 3 12 100 0.0489227
7 3 12 100 0.0340441
8 3 12 100 0.0197
9 3 12 100 0.013446
10 3 12 100 0.011449
11 3 12 100 0.00709281
12 3 12 100 0.00993875
0 4 12 100 0.0147542
1 4 12 100 0.0354424
2 4 12 100 0.0357658
3 4 12 100 0.127686
4 4 12 100 0.304841
5 4 12 100 0.178862
6 4 12 100 0.119227
7 4 12 100 0.0765399
8 4 12 100 0.0390521
9 4 12 100 0.0213242
10 4 12 100 0.0154277
11 4 12 100 0.00860063
12 4 12 100 0.0224775
0 5 12 100 0.0187557
1 5 12 100 0.0270895
2 5 12 100 0.0241004
3 5 12 100 0.048049
4 5 12 100 0.112344
5 5 12 100 0.278699
6 5 12 100 0.182936
7 5 12 100 0.130262
8 5 12 100 0.0594782
9 5 12 100 0.0383266
10 5 12 100 0.0217799
11 5 12 100 0.0161405
12 5 12 100 0.0420394
0 6 12 100 0.0205186
1 6 12 100 0.016913
2 6 12 100 0.013487
3 6 12 100 0.0294556
4 6 12 100 0.029968
5 6 12 100 0.113788
6 6 12 100 0.20415
7 6 12 100 0.204212
8 6 12 100 0.146565
9 6 12 100 0.0813894
10 6 12 100 0.0498176
11 6 12 100 0.0257113
12 6 12 100 0.064025
0 7 12 100 0.0171395
1 7 12 100 0.0169704
2 7 12 100 0.00668551
3 7 12 100 0.0176193
4 7 12 100 0.0193533
5 7 12 100 0.0390853
6 7 12 100 0.0947922
7 7 12 100 0.196945
8 7 12 100 0.199241
9 7 12 100 0.135369
10 7 12 100 0.101292
11 7 12 100 0.063298
12 7 12 100 0.0922091
0 8 12 100 0.0180801
1 8 12 100 0.011878
2 8 12 100 0.00390912
3 8 12 100 0.0102691
4 8 12 100 0.0156694
5 8 12 100 0.0260251
6 8 12 100 0.0489614
7 8 12 100 0.0803913
8 8 12 100 0.1939
9 8 12 100 0.204201
10 8 12 100 0.142556
11 8 12 100 0.101014
12 8 12 100 0.143145
0 9 12 100 0.0199828
1 9 12 100 0.00870363
2 9 12 100 0.005885
3 9 12 100 0.00586065
4 9 12 100 0.00633612
5 9 12 100 0.0123313
6 9 12 100 0.0198612
7 9 12 100 0.0479201
8 9 12 100 0.100319
9 9 12 100 0.207326
10 9 12 100 0.200362
11 9 12 100 0.15185
12 9 12 100 0.213262
0 10 12 100 0.0221965
1 10 12 100 0.00171116
2 10 12 100 0.00410236
3 10 12 100 0.00848692
4 10 12 100 0.00519231
5 10 12 100 0.00882516
6 10 12 100 0.0169144
7 10 12 100 0.0336723
8 10 12 100 0.0576925
9 10 12 100 0.134766
10 10 12 100 0.230059
11 10 12 100 0.211235
12 10 12 100 0.265147
0 11 12 100 0.023568
1 11 12 100 0.00260067
2 11 12 100 0.00330323
3 11 12 100 0.00580932
4 11 12 100 0.00292829
5 11 12 100 0.00464991
6 11 12 100 0.00923246
7 11 12 100 0.0218127
8 11 12 100 0.0552409
9 11 12 100 0.10906
10 11 12 100 0.187177
11 11 12 100 0.254107
12 11 12 100 0.320511
0 12 12 100 0.0257999
1 12 12 100 0.0019545
2 12 12 100 0.00193999
3 12 12 100 0.00194762
4 12 12 100 0.00581185
5 12 12 100 0.00204547
6 12 12 100 0.0104357
7 12 12 100 0.0289901
8 12 12 100 0.0409926
9 12 12 100 0.0682361
10 12 12 100 0.136654
11 12 12 100 0.233841
12 12 12 100 0.441352
0 13 12 100 0.0387846
1 13 12 100 0.00451925
2 13 12 100 0.00450479
3 13 12 100 9.30438e-05
4 13 12 100 0.00895387
5 13 12 100 0.00450544
6 13 12 100 0.0135232
7 13 12 100 0.0179402
8 13 12 100 0.0180765
9 13 12 100 0.103761
10 13 12 100 0.132203
11 13 12 100 0.216948
12 13 12 100 0.436186
0 14 12 100 0.0575749
1 14 12 100 0.0101008
2 14 12 100 0.00650112
3 14 12 100 1.14726e-07
4 14 12 100 0.00592415
5 14 12 100 0.0105744
6 14 12 100 4.85147e-05
7 14 12 100 0.0202751
8 14 12 100 0.0344923
9 14 12 100 0.046244
10 14 12 100 0.138421
11 14 12 100 0.206408
12 14 12 100 0.463436
0 15 12 100 0.0720204
1 15 12 100 5.04428e-05
2 15 12 100 0.0204858
3 15 12 100 1.69672e-05
4 15 12 100 7.69791e-05
5 15 12 100 0.0208038
6 15 12 100 8.13896e-07
7 15 12 100 0.0206054
8 15 12 100 0.000112928
9 15 12 100 0.0582242
10 15 12 100 0.142033
11 15 12 100 0.306442
12 15 12 100 0.359127
0 16 12 100 0.0404807
3 16 12 100 0.0357143
4 16 12 100 0.000189156
5 16 12 100 0.000357234
6 16 12 100 0.00277551
7 16 12 100 0.0714286
8 16 12 100 0.000902857
9 16 12 100 0.107143
10 16 12 100 0.178433
11 16 12 100 0.098292
12 16 12 100 0.464284
0 17 12 100 0.0342672
1 17 12 100 1.4093e-06
2 17 12 100 0.000244925
4 17 12 100 0.071456
6 17 12 100 3.84314e-06
7 17 12 100 0.0721805
8 17 12 100 0.110762
9 17 12 100 0.0714279
10 17 12 100 0.216606
11 17 12 100 0.0714287
12 17 12 100 0.351622
0 18 12 100 0.0739969
2 18 12 100 1.14531e-05
3 18 12 100 8.622e-06
4 18 12 100 0.00039957
5 18 12 100 0.12482
9 18 12 100 2.05313e-05
11 18 12 100 0.249982
12 18 12 100 0.550761
0 19 12 100 0.3323
1 19 12 100 0.000211582
4 19 12 100 2.72635e-05
6 19 12 100 0.167233
8 19 12 100 9.08931e-06
9 19 12 100 0.166666
10 19 12 100 0.000218567
11 19 12 100 0.166667
12 19 12 100 0.166667
3 20 12 100 4.57874e-05
7 20 12 100 0.499954
10 20 12 100 0.25
12 20 12 100 0.25
0 21 12 100 0.000143123
4 21 12 100 0.0507422
8 21 12 100 0.198917
10 21 12 100 0.25
11 21 12 100 0.000196769
12 21 12 100 0.5
0 22 12 100 0.000132202
9 22 12 100 0.333187
10 22 12 100 2.1886e-05
11 22 12 100 0.666614
12 22 12 100 4.52209e-05
0 23 12 100 0.00129695
1 23 12 100 0.000243327
6 23 12 100 7.0524e-06
10 23 12 100 0.665119
12 23 12 100 0.333333
10 24 12 100 0.333333
11 24 12 100 0.666667
10 25 12 100 0.5
11 25 12 100 0.5
0 26 12 100 0.500286
10 26 12 100 0.499714
11 27 12 100 1
11 28 12 100 1
11 29 12 100 1
0 30 12 100 0.994578
1 30 12 100 0.00116801
6 30 12 100 0.00309725
7 30 12 100 1.21194e-05
8 30 12 100 5.12344e-05
10 30 12 100 0.00109326
0 31 12 100 4.09745e-05
3 31 12 100 0.00319128
9 31 12 100 0.996768
11 32 12 100 1
0 1 13 100 0.0222119
1 1 13 100 0.668711
2 1 13 100 0.0952426
3 1 13 100 0.0739668
4 1 13 100 0.039699
5 1 13 100 0.0320618
6 1 13 100 0.0183557
7 1 13 100 0.0144395
8 1 13 100 0.0118699
9 1 13 100 0.0065366
10 1 13 100 0.00285584
11 1 13 100 0.00506405
12 1 13 100 0.00165395
13 1 13 100 0.00733173
0 2 13 100 0.0198298
1 2 13 100 0.12657
2 2 13 100 0.469619
3 2 13 100 0.153243
4 2 13 100 0.0963681
5 2 13 100 0.0501143
6 2 13 100 0.0227725
7 2 13 100 0.0150274
8 2 13 100 0.0148167
9 2 13 100 0.0103083
10 2 13 100 0.00611375
11 2 13 100 0.00301999
12 2 13 100 0.00635099
13 2 13 100 0.00584656
0 3 13 100 0.0276199
1 3 13 100 0.0617706
2 3 13 100 0.141023
3 3 13 100 0.378914
4 3 13 100 0.167914
5 3 13 100 0.0973894
6 3 13 100 0.0471047
7 3 13 100 0.0251166
8 3 13 100 0.0197038
9 3 13 100 0.0074743
10 3 13 100 0.00912754
11 3 13 100 0.00405867
12 3 13 100 0.00450142
13 3 13 100 0.00828175
0 4 13 100 0.0187556
1 4 13 100 0.0380372
2 4 13 100 0.041457
3 4 13 100 0.141777
4 4 13 100 0.294402
5 4 13 100 0.18165
6 4 13 100 0.113488
7 4 13 100 0.0601734
8 4 13 100 0.0437603
9 4 13 100 0.0249418
10 4 13 100 0.013159
11 4 13 100 0.00983242
12 4 13 100 0.00347047
13 4 13 100 0.0150969
0 5 13 100 0.0184311
1 5 13 100 0.0235328
2 5 13 100 0.0178792
3 5 13 100 0.045158
4 5 13 100 0.113923
5 5 13 100 0.248906
6 5 13 100 0.210264
7 5 13 100 0.131205
8 5 13 100 0.0793701
9 5 13 100 0.0389775
10 5 13 100 0.0191943
11 5 13 100 0.0156647
12 5 13 100 0.0111565
13 5 13 100 0.0263376
0 6 13 100 0.0206192
1 6 13 100 0.0108657
2 6 13 100 0.0124849
3 6 13 100 0.0258761
4 6 13 100 0.0430668
5 6 13 100 0.105829
6 6 13 100 0.221846
7 6 13 100 0.199325
8 6 13 100 0.138926
9 6 13 100 0.0828227
10 6 13 100 0.0471854
11 6 13 100 0.0246751
12 6 13 100 0.0195039
13 6 13 100 0.0469751
0 7 13 100 0.0222817
1 7 13 100 0.0100844
2 7 13 100 0.0097679
3 7 13 100 0.0129672
4 7 13 100 0.015155
5 7 13 100 0.0543051
6 7 13 100 0.0947833
7 7 13 100 0.19174
8 7 13 100 0.191309
9 7 13 100 0.144893
10 7 13 100 0.0985273
11 7 13 100 0.054198
12 7 13 100 0.0372287
13 7 13 100 0.0627593
0 8 13 100 0.0231907
1 8 13 100 0.00654016
2 8 13 100 0.00504667
3 8 13 100 0.00626449
4 8 13 100 0.0107755
5 8 13 100 0.0205393
6 8 13 100 0.0359654
7 8 13 100 0.0956425
8 8 13 100 0.188277
9 8 13 100 0.187652
10 8 13 100 0.155842
11 8 13 100 0.104363
12 8 13 100 0.0549455
13 8 13 100 0.104955
0 9 13 100 0.0207836
1 9 13 100 0.00757219
2 9 13 100 0.00342722
3 9 13 100 0.00442851
4 9 13 100 0.00456702
5 9 13 100 0.0094064
6 9 13 100 0.0209242
7 9 13 100 0.0471909
8 9 13 100 0.094649
9 9 13 100 0.178736
10 9 13 100 0.190714
11 9 13 100 0.15931
12 9 13 100 0.107802
13 9 13 100 0.150489
0 10 13 100 0.0187404
1 10 13 100 0.00318357
2 10 13 100 0.00540578
3 10 13 100 0.00340158
4 10 13 100 0.00729577
5 10 13 100 0.00445815
6 10 13 100 0.0162308
7 10 13 100 0.0244363
8 10 13 100 0.055112
9 10 13 100 0.111884
10 10 13 100 0.204088
11 10 13 100 0.204584
12 10 13 100 0.149229
13 10 13 100 0.19195
0 11 13 100 0.0208913
1 11 13 100 0.00225092
2 11 13 100 0.00326862
3 11 13 100 4.35835e-05
4 11 13 100 0.00459931
5 11 13 100 0.00343197
6 11 13 100 0.00635632
7 11 13 100 0.021223
8 11 13 100 0.0311614
9 11 13 100 0.072284
10 11 13 100 0.154922
11 11 13 100 0.204966
12 11 13 100 0.21512
13 11 13 100 0.259482
0 12 13 100 0.0333104
1 12 13 100 0.00111257
2 12 13 100 0.00460946
3 12 13 100 0.00168812
4 12 13 100 0.00113655
5 12 13 100 0.00536704
6 12 13 100 0.00792085
7 12 13 100 0.0167649
8 12 13 100 0.0201007
9 12 13 100 0.0541737
10 12 13 100 0.100363
11 12 13 100 0.195506
12 12 13 100 0.219456
13 12 13 100 0.338491
0 13 13 100 0.03325
1 13 13 100 0.00553611
2 13 13 100 0.00378912
3 13 13 100 0.00380367
4 13 13 100 0.00426718
5 13 13 100 0.00552157
6 13 13 100 0.00371466
7 13 13 100 0.0153265
8 13 13 100 0.0147496
9 13 13 100 0.0328613
10 13 13 100 0.0611854
11 13 13 100 0.161387
12 13 13 100 0.250911
13 13 13 100 0.403697
0 14 13 100 0.016364
1 14 13 100 1.87818e-05
2 14 13 100 0.00832499
3 14 13 100 0.00368189
4 14 13 100 0.00736575
5 14 13 100 0.00739332
6 14 13 100 0.00743277
7 14 13 100 0.00377237
8 14 13 100 0.0191418
9 14 13 100 0.0282148
10 14 13 100 0.0712097
11 14 13 100 0.137535
12 14 13 100 0.210495
13 14 13 100 0.47905
0 15 13 100 0.0832831
1 15 13 100 0.00990151
2 15 13 100 1.14621e-06
3 15 13 100 0.00100521
4 15 13 100 0.00016145
5 15 13 100 0.0198057
6 15 13 100 0.00186969
7 15 13 100 0.00160435
8 15 13 100 0.00999818
9 15 13 100 0.0107863
10 15 13 100 0.0204954
11 15 13 100 0.128878
12 15 13 100 0.266339
13 15 13 100 0.445871
0 16 13 100 0.106754
1 16 13 100 9.7029e-06
2 16 13 100 0.0222222
3 16 13 100 2.49695e-06
5 16 13 100 0.00270495
6 16 13 100 0.000766955
7 16 13 100 0.015625
8 16 13 100 0.0222254
9 16 13 100 0.0222227
10 16 13 100 0.0845716
11 16 13 100 0.0448055
12 16 13 100 0.162716
13 16 13 100 0.515374
0 17 13 100 0.0593398
6 17 13 100 7.15679e-07
7 17 13 100 4.57174e-06
10 17 13 100 0.117646
11 17 13 100 0.175949
12 17 13 100 0.176471
13 17 13 100 0.470589
0 18 13 100 0.0242854
6 18 13 100 0.187075
7 18 13 100 2.00937e-06
9 18 13 100 0.000101499
12 18 13 100 0.499984
13 18 13 100 0.288552
0 19 13 100 0.248762
1 19 13 100 1.65289e-05
7 19 13 100 0.249847
8 19 13 100 4.98521e-06
10 19 13 100 1.99834e-05
12 19 13 100 0.00112076
13 19 13 100 0.500229
0 20 13 100 0.994785
4 20 13 100 0.0012903
7 20 13 100 0.000546683
10 20 13 100 0.00336645
12 20 13 100 1.18918e-05
8 21 13 100 1
9 22 13 100 1
0 23 13 100 0.000394756
11 23 13 100 0.999359
12 23 13 100 0.000245901
0 24 13 100 0.0740891
10 24 13 100 0.00028835
12 24 13 100 0.00848488
13 24 13 100 0.917138
0 1 14 100 0.0281802
1 1 14 100 0.686155
2 1 14 100 0.0959197
3 1 14 100 0.0621291
4 1 14 100 0.0331694
5 1 14 100 0.0292633
6 1 14 100 0.0154593
7 1 14 100 0.0130346
8 1 14 100 0.00806841
9 1 14 100 0.0095753
10 1 14 100 0.0032172
11 1 14 100 0.00194965
12 1 14 100 0.00417528
13 1 14 100 0.00244695
14 1 14 100 0.00725639
0 2 14 100 0.0188538
1 2 14 100 0.110694
2 2 14 100 0.454366
3 2 14 100 0.163508
4 2 14 100 0.109542
5 2 14 100 0.0532828
6 2 14 100 0.0280174
7 2 14 100 0.0169262
8 2 14 100 0.00977623
9 2 14 100 0.00859126
10 2 14 100 0.00525758
11 2 14 100 0.00425717
12 2 14 100 0.00366475
13 2 14 100 0.00765904
14 2 14 100 0.00560438
0 3 14 100 0.0227109
1 3 14 100 0.0602845
2 3 14 100 0.161777
3 3 14 100 0.378761
4 3 14 100 0.166069
5 3 14 100 0.077457
6 3 14 100 0.0416685
7 3 14 100 0.0270641
8 3 14 100 0.0205131
9 3 14 100 0.0112083
10 3 14 100 0.00751297
11 3 14 100 0.0102814
12 3 14 100 0.00523367
13 3 14 100 0.00236965
14 3 14 100 0.00708899
0 4 14 100 0.016792
1 4 14 100 0.036534
2 4 14 100 0.0480156
3 4 14 100 0.119275
4 4 14 100 0.304246
5 4 14 100 0.206991
6 4 14 100 0.105504
7 4 14 100 0.0599961
8 4 14 100 0.0362877
9 4 14 100 0.0282518
10 4 14 100 0.00901436
11 4 14 100 0.00897013
12 4 14 100 0.00562623
13 4 14 100 0.00651354
14 4 14 100 0.00798203
0 5 14 100 0.0146918
1 5 14 100 0.0244903
2 5 14 100 0.0193485
3 5 14 100 0.0494305
4 5 14 100 0.0987697
5 5 14 100 0.27107
6 5 14 100 0.214368
7 5 14 100 0.126094
8 5 14 100 0.0767048
9 5 14 100 0.0356286
10 5 14 100 0.0267699
11 5 14 100 0.0122773
12 5 14 100 0.00842413
13 5 14 100 0.00659792
14 5 14 100 0.0153336
0 6 14 100 0.0173803
1 6 14 100 0.0152531
2 6 14 100 0.00869534
3 6 14 100 0.0264371
4 6 14 100 0.0382681
5 6 14 100 0.112309
6 6 14 100 0.23071
7 6 14 100 0.197605
8 6 14 100 0.134514
9 6 14 100 0.0924917
10 6 14 100 0.0457263
11 6 14 100 0.0284544
12 6 14 100 0.017877
13 6 14 100 0.0104996
14 6 14 100 0.0237788
0 7 14 100 0.0180467
1 7 14 100 0.0101324
2 7 14 100 0.00751235
3 7 14 100 0.0124308
4 7 14 100 0.015818
5 7 14 100 0.0470134
6 7 14 100 0.0965098
7 7 14 100 0.202211
8 7 14 100 0.193234
9 7 14 100 0.161301
10 7 14 100 0.0926783
11 7 14 100 0.0507166
12 7 14 100 0.0312362
13 7 14 100 0.0237991
14 7 14 100 0.0373602
0 8 14 100 0.0201115
1 8 14 100 0.00523604
2 8 14 100 0.00526973
3 8 14 100 0.00615362
4 8 14 100 0.00846407
5 8 14 100 0.0199325
6 8 14 100 0.0493665
7 8 14 100 0.0904092
8 8 14 100 0.191175
9 8 14 100 0.185836
10 8 14 100 0.141032
11 8 14 100 0.101201
12 8 14 100 0.0640811
13 8 14 100 0.036204
14 8 14 100 0.0755273
0 9 14 100 0.0239542
1 9 14 100 0.00484159
2 9 14 100 0.0050915
3 9 14 100 0.00705471
4 9 14 100 0.00455405
5 9 14 100 0.0127352
6 9 14 100 0.0231865
7 9 14 100 0.0503507
8 9 14 100 0.08153
9 9 14 100 0.17632
10 9 14 100 0.190768
11 9 14 100 0.140907
12 9 14 100 0.114049
13 9 14 100 0.0680013
14 9 14 100 0.0966562
0 10 14 100 0.0203049
1 10 14 100 0.00348989
2 10 14 100 0.00417601
3 10 14 100 0.00551344
4 10 14 100 0.00719427
5 10 14 100 0.00958684
6 10 14 100 0.0130656
7 10 14 100 0.0254669
8 10 14 100 0.0474643
9 10 14 100 0.0862086
10 10 14 100 0.185739
11 10 14 100 0.191693
12 10 14 100 0.139829
13 10 14 100 0.118979
14 10 14 100 0.141289
0 11 14 100 0.0206018
1 11 14 100 0.00417406
2 11 14 100 0.00256109
3 11 14 100 0.00312611
4 11 14 100 0.00381291
5 11 14 100 0.00563001
6 11 14 100 0.00710276
7 11 14 100 0.0109783
8 11 14 100 0.0272399
9 11 14 100 0.0414665
10 11 14 100 0.105032
11 11 14 100 0.211747
12 11 14 100 0.19637
13 11 14 100 0.158254
14 11 14 100 0.201903
0 12 14 100 0.0252752
1 12 14 100 0.00167974
2 12 14 100 0.00408892
3 12 14 100 0.00309519
4 12 14 100 0.00547427
5 12 14 100 0.00407499
6 12 14 100 0.00318145
7 12 14 100 0.00393798
8 12 14 100 0.0188635
9 12 14 100 0.0287876
10 12 14 100 0.0650004
11 12 14 100 0.133432
12 12 14 100 0.235165
13 12 14 100 0.206137
14 12 14 100 0.261806
0 13 14 100 0.0265452
1 13 14 100 0.00525784
2 13 14 100 0.000341371
3 13 14 100 0.00255812
4 13 14 100 0.00248051
5 13 14 100 0.00650141
6 13 14 100 0.00342631
7 13 14 100 0.013447
8 13 14 100 0.00734717
9 13 14 100 0.0255044
10 13 14 100 0.0425983
11 13 14 100 0.106556
12 13 14 100 0.164988
13 13 14 100 0.277109
14 13 14 100 0.315339
0 14 14 100 0.0250285
1 14 14 100 0.00515723
2 14 14 100 8.31469e-05
3 14 14 100 0.00175133
4 14 14 100 5.68762e-05
5 14 14 100 0.00416914
6 14 14 100 0.0116088
7 14 14 100 0.00636214
8 14 14 100 0.00910647
9 14 14 100 0.0122923
10 14 14 100 0.0357625
11 14 14 100 0.0777736
12 14 14 100 0.134464
13 14 14 100 0.218358
14 14 14 100 0.458026
0 15 14 100 0.0111912
1 15 14 100 0.00375778
2 15 14 100 1.24017e-05
3 15 14 100 1.69568e-05
4 15 14 100 0.00323343
5 15 14 100 0.00384043
6 15 14 100 0.00663652
7 15 14 100 0.00405045
8 15 14 100 0.0112807
9 15 14 100 0.0157112
10 15 14 100 0.0475984
11 15 14 100 0.075185
12 15 14 100 0.157959
13 15 14 100 0.228044
14 15 14 100 0.431482
0 16 14 100 0.030708
1 16 14 100 0.0031946
2 16 14 100 2.30683e-07
3 16 14 100 0.0163437
4 16 14 100 0.000797026
5 16 14 100 7.53455e-05
6 16 14 100 0.0086386
7 16 14 100 0.00847858
8 16 14 100 0.00827285
9 16 14 100 0.0250456
10 16 14 100 0.0332363
11 16 14 100 0.0496262
12 16 14 100 0.157144
13 16 14 100 0.196146
14 16 14 100 0.462292
0 17 14 100 0.0396339
1 17 14 100 0.0169837
2 17 14 100 0.016998
3 17 14 100 0.00933204
5 17 14 100 0.0339106
6 17 14 100 1.13959e-05
7 17 14 100 0.0169665
8 17 14 100 0.00249591
9 17 14 100 0.017298
10 17 14 100 0.000425918
11 17 14 100 0.0842788
12 17 14 100 0.116885
13 17 14 100 0.288879
14 17 14 100 0.355902
0 18 14 100 0.0358133
1 18 14 100 0.000387781
3 18 14 100 0.0714033
4 18 14 100 0.0357143
6 18 14 100 2.64673e-05
9 18 14 100 0.0362725
10 18 14 100 0.0295571
11 18 14 100 0.035678
12 18 14 100 0.178031
13 18 14 100 0.11133
14 18 14 100 0.465786
0 19 14 100 0.083729
2 19 14 100 0.0895358
3 19 14 100 0.00439083
4 19 14 100 0.00137363
6 19 14 100 0.00288508
7 19 14 100 1.1148e-06
9 19 14 100 0.0053609
10 19 14 100 0.000790018
11 19 14 100 0.0909121
12 19 14 100 0.181819
13 19 14 100 0.18174
14 19 14 100 0.357463
4 20 14 100 0.142857
10 20 14 100 0.142857
14 20 14 100 0.714286
13 21 14 100 0.5
14 21 14 100 0.5
0 1 15 100 0.0266619
1 1 15 100 0.71109
2 1 15 100 0.0746534
3 1 15 100 0.0597402
4 1 15 100 0.0416364
5 1 15 100 0.0228424
6 1 15 100 0.0181327
7 1 15 100 0.0124412
8 1 15 100 0.00542144
9 1 15 100 0.00578044
10 1 15 100 0.00549548
11 1 15 100 0.00306103
12 1 15 100 0.00192699
13 1 15 100 0.00454407
14 1 15 100 0.00207004
15 1 15 100 0.00450221
0 2 15 100 0.017373
1 2 15 100 0.0878818
2 2 15 100 0.471252
3 2 15 100 0.169333
4 2 15 100 0.106161
5 2 15 100 0.0553488
6 2 15 100 0.0325502
7 2 15 100 0.013605
8 2 15 100 0.0126649
9 2 15 100 0.00806713
10 2 15 100 0.00361802
11 2 15 100 0.00554297
12 2 15 100 0.00567589
13 2 15 100 0.00258582
14 2 15 100 0.003221
15 2 15 100 0.00511993
0 3 15 100 0.025371
1 3 15 100 0.0472891
2 3 15 100 0.170087
3 3 15 100 0.378719
4 3 15 100 0.153459
5 3 15 100 0.092696
6 3 15 100 0.0495847
7 3 15 100 0.0325371
8 3 15 100 0.0137913
9 3 15 100 0.0109992
10 3 15 100 0.00596897
11 3 15 100 0.00616708
12 3 15 100 0.00516309
13 3 15 100 0.00111126
14 3 15 100 0.00301539
15 3 15 100 0.0040412
0 4 15 100 0.0172453
1 4 15 100 0.0319019
2 4 15 100 0.0461819
3 4 15 100 0.119452
4 4 15 100 0.321287
5 4 15 100 0.197917
6 4 15 100 0.108874
7 4 15 100 0.0592783
8 4 15 100 0.0351556
9 4 15 100 0.0224117
10 4 15 100 0.0152448
11 4 15 100 0.00778977
12 4 15 100 0.00306402
13 4 15 100 0.00329465
14 4 15 100 0.00463009
15 4 15 100 0.00627149
0 5 15 100 0.016098
1 5 15 100 0.0197576
2 5 15 100 0.0228456
3 5 15 100 0.0509172
4 5 15 100 0.10529
5 5 15 100 0.273346
6 5 15 100 0.209366
7 5 15 100 0.110451
8 5 15 100 0.0790279
9 5 15 100 0.0456092
10 5 15 100 0.0240898
11 5 15 100 0.0126662
12 5 15 100 0.00891072
13 5 15 100 0.00847548
14 5 15 100 0.00258814
15 5 15 100 0.0105611
0 6 15 100 0.0206333
1 6 15 100 0.0111668
2 6 15 100 0.0149349
3 6 15 100 0.0199202
4 6 15 100 0.0400842
5 6 15 100 0.116534
6 6 15 100 0.234138
7 6 15 100 0.205692
8 6 15 100 0.125868
9 6 15 100 0.0917038
10 6 15 100 0.0475696
11 6 15 100 0.0329517
12 6 15 100 0.0111805
13 6 15 100 0.00703567
14 6 15 100 0.00692114
15 6 15 100 0.0136663
0 7 15 100 0.0219832
1 7 15 100 0.00574063
2 7 15 100 0.00484785
3 7 15 100 0.0162888
4 7 15 100 0.0153994
5 7 15 100 0.0415795
6 7 15 100 0.105224
7 7 15 100 0.205654
8 7 15 100 0.21441
9 7 15 100 0.129041
10 7 15 100 0.100574
11 7 15 100 0.0477493
12 7 15 100 0.0285073
13 7 15 100 0.0193366
14 7 15 100 0.0142437
15 7 15 100 0.0294209
0 8 15 100 0.0189392
1 8 15 100 0.00805195
2 8 15 100 0.00639087
3 8 15 100 0.00553202
4 8 15 100 0.00983705
5 8 15 100 0.0234092
6 8 15 100 0.0455087
7 8 15 100 0.106099
8 8 15 100 0.186034
9 8 15 100 0.188702
10 8 15 100 0.140491
11 8 15 100 0.100855
12 8 15 100 0.0660979
13 8 15 100 0.0286776
14 8 15 100 0.0253494
15 8 15 100 0.0400255
0 9 15 100 0.0228889
1 9 15 100 0.00492301
2 9 15 100 0.00409858
3 9 15 100 0.00528213
4 9 15 100 0.00625144
5 9 15 100 0.0125354
6 9 15 100 0.0159276
7 9 15 100 0.0417927
8 9 15 100 0.102871
9 9 15 100 0.173744
10 9 15 100 0.182986
11 9 15 100 0.154043
12 9 15 100 0.105148
13 9 15 100 0.0704597
14 9 15 100 0.0375267
15 9 15 100 0.0595205
0 10 15 100 0.0210617
1 10 15 100 0.00256607
2 10 15 100 0.00341014
3 10 15 100 0.00558701
4 10 15 100 0.00343978
5 10 15 100 0.00558376
6 10 15 100 0.0149997
7 10 15 100 0.0185135
8 10 15 100 0.0430342
9 10 15 100 0.0958335
10 10 15 100 0.16541
11 10 15 100 0.201102
12 10 15 100 0.133631
13 10 15 100 0.109621
14 10 15 100 0.0826296
15 10 15 100 0.0935769
0 11 15 100 0.0221588
1 11 15 100 0.00248455
2 11 15 100 0.00195907
3 11 15 100 0.00580084
4 11 15 100 0.00145958
5 11 15 100 0.00461211
6 11 15 100 0.0079654
7 11 15 100 0.00613639
8 11 15 100 0.0222637
9 11 15 100 0.0496242
10 11 15 100 0.0991776
11 11 15 100 0.158162
12 11 15 100 0.200797
13 11 15 100 0.137921
14 11 15 100 0.126573
15 11 15 100 0.152905
0 12 15 100 0.0253724
1 12 15 100 0.00201491
2 12 15 100 0.00416609
3 12 15 100 0.00218249
4 12 15 100 0.00200498
5 12 15 100 0.000721324
6 12 15 100 0.00622348
7 12 15 100 0.0102965
8 12 15 100 0.00892394
9 12 15 100 0.0299592
10 12 15 100 0.050729
11 12 15 100 0.109297
12 12 15 100 0.190486
13 12 15 100 0.195271
14 12 15 100 0.156128
15 12 15 100 0.206223
0 13 15 100 0.0205826
1 13 15 100 0.00176974
2 13 15 100 0.00137935
3 13 15 100 0.00426147
4 13 15 100 0.00315418
5 13 15 100 0.00191378
6 13 15 100 0.0021015
7 13 15 100 0.00836839
8 13 15 100 0.0103957
9 13 15 100 0.0208159
10 13 15 100 0.0346377
11 13 15 100 0.069624
12 13 15 100 0.155742
13 13 15 100 0.204105
14 13 15 100 0.207818
15 13 15 100 0.253331
0 14 15 100 0.0234345
1 14 15 100 8.3584e-06
2 14 15 100 0.00363514
3 14 15 100 0.00518852
4 14 15 100 0.00337091
5 14 15 100 0.00246819
6 14 15 100 0.00365846
7 14 15 100 0.00620689
8 14 15 100 0.00611011
9 14 15 100 0.0130716
10 14 15 100 0.0265173
11 14 15 100 0.0339959
12 14 15 100 0.0967086
13 14 15 100 0.200391
14 14 15 100 0.220235
15 14 15 100 0.355
0 15 15 100 0.0397
1 15 15 100 0.00208531
2 15 15 100 0.00413175
3 15 15 100 0.00414513
4 15 15 100 0.000771512
5 15 15 100 0.00272877
6 15 15 100 6.77076e-06
7 15 15 100 0.00206539
8 15 15 100 0.00891375
9 15 15 100 0.0106335
10 15 15 100 0.0130119
11 15 15 100 0.0511682
12 15 15 100 0.0940787
13 15 15 100 0.170405
14 15 15 100 0.238334
15 15 15 100 0.357821
0 16 15 100 0.0224487
1 16 15 100 2.09231e-05
2 16 15 100 0.00401954
3 16 15 100 0.00337971
4 16 15 100 0.00750158
5 16 15 100 0.00396173
6 16 15 100 0.00385121
7 16 15 100 0.00816797
8 16 15 100 0.0038631
9 16 15 100 0.0193034
10 16 15 100 0.0182855
11 16 15 100 0.0460732
12 16 15 100 0.0775839
13 16 15 100 0.12402
14 16 15 100 0.214477
15 16 15 100 0.443043
0 17 15 100 0.0325093
1 17 15 100 2.72226e-05
2 17 15 100 0.000315443
3 17 15 100 0.00134814
4 17 15 100 1.29378e-05
5 17 15 100 0.0079919
6 17 15 100 0.000404535
7 17 15 100 0.0105097
8 17 15 100 0.00806933
9 17 15 100 0.00240506
10 17 15 100 0.0160131
11 17 15 100 0.0329444
12 17 15 100 0.0544027
13 17 15 100 0.184028
14 17 15 100 0.174488
15 17 15 100 0.474531
0 18 15 100 0.0827729
1 18 15 100 1.73067e-06
2 18 15 100 3.61836e-05
3 18 15 100 3.59123e-07
5 18 15 100 0.0169356
6 18 15 100 0.0339085
7 18 15 100 0.0169574
8 18 15 100 1.17472e-05
9 18 15 100 0.013197
10 18 15 100 0.00504204
11 18 15 100 0.0158305
12 18 15 100 0.0654869
13 18 15 100 0.118926
14 18 15 100 0.316606
15 18 15 100 0.314286
0 19 15 100 0.0566045
1 19 15 100 1.20166e-05
4 19 15 100 0.030303
5 19 15 100 1.09571e-06
6 19 15 100 2.81184e-05
7 19 15 100 6.15644e-05
8 19 15 100 0.00145322
9 19 15 100 0.030307
10 19 15 100 0.000366747
11 19 15 100 0.0303086
12 19 15 100 0.0303031
13 19 15 100 0.125234
14 19 15 100 0.181342
15 19 15 100 0.513676
0 20 15 100 0.0802746
1 20 15 100 2.00432e-05
3 20 15 100 6.32838e-05
4 20 15 100 9.35741e-06
7 20 15 100 0.0908459
8 20 15 100 2.94702e-05
10 20 15 100 0.010702
14 20 15 100 0.181691
15 20 15 100 0.636364
0 21 15 100 0.165165
1 21 15 100 4.46711e-06
5 21 15 100 0.000797663
9 21 15 100 0.000491278
10 21 15 100 5.10551e-05
13 21 15 100 0.166667
14 21 15 100 0.333491
15 21 15 100 0.333333
8 22 15 100 0.333333
15 22 15 100 0.666667
7 23 15 100 1
0 24 15 100 0.013999
9 24 15 100 0.985861
10 24 15 100 0.000140409
10 25 15 100 4.61979e-05
11 25 15 100 0.999954
0 26 15 100 1.77341e-05
12 26 15 100 0.999982
15 27 15 100 1
0 28 15 100 0.988506
14 28 15 100 0.0114937
15 29 15 100 1
13 30 15 100 1
0 1 16 100 0.0312908
1 1 16 100 0.725773
2 1 16 100 0.0777838
3 1 16 100 0.053915
4 1 16 100 0.0349239
5 1 16 100 0.0247215
6 1 16 100 0.0154341
7 1 16 100 0.00705753
8 1 16 100 0.00693709
9 1 16 100 0.00654244
10 1 16 100 0.00321146
11 1 16 100 0.00236906
12 1 16 100 0.00227791
13 1 16 100 0.0022947
14 1 16 100 0.000268445
15 1 16 100 0.00178452
16 1 16 100 0.00341503
0 2 16 100 0.0248351
1 2 16 100 0.0981224
2 2 16 100 0.483564
3 2 16 100 0.167154
4 2 16 100 0.0967371
5 2 16 100 0.0440382
6 2 16 100 0.0369347
7 2 16 100 0.0150287
8 2 16 100 0.0112522
9 2 16 100 0.00626497
10 2 16 100 0.00459733
11 2 16 100 0.00361056
12 2 16 100 0.00231428
13 2 16 100 0.00108221
14 2 16 100 0.00255961
15 2 16 100 0.0012619
16 2 16 100 0.000642488
0 3 16 100 0.0214256
1 3 16 100 0.0486199
2 3 16 100 0.155933
3 3 16 100 0.393731
4 3 16 100 0.16864
5 3 16 100 0.0886259
6 3 16 100 0.046137
7 3 16 100 0.0200707
8 3 16 100 0.0145312
9 3 16 100 0.0145562
10 3 16 100 0.00739651
11 3 16 100 0.00617604
12 3 16 100 0.00306799
13 3 16 100 0.00308822
14 3 16 100 0.00161121
15 3 16 100 0.00390766
16 3 16 100 0.00248216
0 4 16 100 0.0220395
1 4 16 100 0.0233658
2 4 16 100 0.055848
3 4 16 100 0.130922
4 4 16 100 0.336092
5 4 16 100 0.180113
6 4 16 100 0.0974318
7 4 16 100 0.0649176
8 4 16 100 0.0307328
9 4 16 100 0.0189323
10 4 16 100 0.012796
11 4 16 100 0.00796647
12 4 16 100 0.00508653
13 4 16 100 0.00191749
14 4 16 100 0.0030043
15 4 16 100 0.00636482
16 4 16 100 0.00246907
0 5 16 100 0.0226112
1 5 16 100 0.0191507
2 5 16 100 0.0253609
3 5 16 100 0.0453426
4 5 16 100 0.100179
5 5 16 100 0.293345
6 5 16 100 0.200748
7 5 16 100 0.117728
8 5 16 100 0.0689887
9 5 16 100 0.0441829
10 5 16 100 0.0174976
11 5 16 100 0.0147223
12 5 16 100 0.00711338
13 5 16 100 0.00753752
14 5 16 100 0.00431137
15 5 16 100 0.0051411
16 5 16 100 0.00604021
0 6 16 100 0.0188963
1 6 16 100 0.0103687
2 6 16 100 0.0153384
3 6 16 100 0.0192042
4 6 16 100 0.0354369
5 6 16 100 0.102033
6 6 16 100 0.256441
7 6 16 100 0.201872
8 6 16 100 0.131406
9 6 16 100 0.0829398
10 6 16 100 0.0455284
11 6 16 100 0.032382
12 6 16 100 0.0126044
13 6 16 100 0.0108639
14 6 16 100 0.00809337
15 6 16 100 0.00421473
16 6 16 100 0.012377
0 7 16 100 0.0162507
1 7 16 100 0.00345788
2 7 16 100 0.00772211
3 7 16 100 0.00866426
4 7 16 100 0.0152604
5 7 16 100 0.0514036
6 7 16 100 0.0986608
7 7 16 100 0.221448
8 7 16 100 0.196324
9 7 16 100 0.142633
10 7 16 100 0.0934713
11 7 16 100 0.0535736
12 7 16 100 0.033991
13 7 16 100 0.0151913
14 7 16 100 0.0128574
15 7 16 100 0.00958162
16 7 16 100 0.0195093
0 8 16 100 0.0202874
1 8 16 100 0.00602809
2 8 16 100 0.00606121
3 8 16 100 0.00511955
4 8 16 100 0.0075207
5 8 16 100 0.0190974
6 8 16 100 0.0442074
7 8 16 100 0.0956746
8 8 16 100 0.199798
9 8 16 100 0.201016
10 8 16 100 0.136485
11 8 16 100 0.0971377
12 8 16 100 0.0540662
13 8 16 100 0.0333528
14 8 16 100 0.0262115
15 8 16 100 0.0192703
16 8 16 100 0.0286663
0 9 16 100 0.0169136
1 9 16 100 0.00462629
2 9 16 100 0.00294559
3 9 16 100 0.00697069
4 9 16 100 0.00521822
5 9 16 100 0.00570161
6 9 16 100 0.0144176
7 9 16 100 0.0465145
8 9 16 100 0.0911911
9 9 16 100 0.180813
10 9 16 100 0.19389
11 9 16 100 0.152678
12 9 16 100 0.0951632
13 9 16 100 0.0632278
14 9 16 100 0.046588
15 9 16 100 0.0305956
16 9 16 100 0.0425456
0 10 16 100 0.0210861
1 10 16 100 0.00433263
2 10 16 100 0.0049577
3 10 16 100 0.00410589
4 10 16 100 0.00447761
5 10 16 100 0.00523469
6 10 16 100 0.0138913
7 10 16 100 0.017367
8 10 16 100 0.0454803
9 10 16 100 0.0848516
10 10 16 100 0.160495
11 10 16 100 0.187516
12 10 16 100 0.158843
13 10 16 100 0.0933743
14 10 16 100 0.0686717
15 10 16 100 0.0544424
16 10 16 100 0.0708733
0 11 16 100 0.0167896
1 11 16 100 0.00174697
2 11 16 100 0.00601232
3 11 16 100 0.0045252
4 11 16 100 0.00226353
5 11 16 100 0.004297
6 11 16 100 0.00706377
7 11 16 100 0.00960009
8 11 16 100 0.0182807
9 11 16 100 0.049546
10 11 16 100 0.0882993
11 11 16 100 0.155858
12 11 16 100 0.192079
13 11 16 100 0.147815
14 11 16 100 0.10739
15 11 16 100 0.0795307
16 11 16 100 0.108903
0 12 16 100 0.0168536
1 12 16 100 0.00191054
2 12 16 100 0.00190903
3 12 16 100 0.00296562
4 12 16 100 0.00295178
5 12 16 100 0.00522564
6 12 16 100 0.00540534
7 12 16 100 0.00761384
8 12 16 100 0.00795324
9 12 16 100 0.0173189
10 12 16 100 0.0522181
11 12 16 100 0.093443
12 12 16 100 0.176613
13 12 16 100 0.184576
14 12 16 100 0.153671
15 12 16 100 0.123438
16 12 16 100 0.145934
0 13 16 100 0.0240046
1 13 16 100 0.00213948
2 13 16 100 0.00200814
3 13 16 100 0.00277192
4 13 16 100 0.00144729
5 13 16 100 0.00272931
6 13 16 100 0.00668524
7 13 16 100 0.00647557
8 13 16 100 0.00894189
9 13 16 100 0.0120181
10 13 16 100 0.0347037
11 13 16 100 0.0608561
12 13 16 100 0.099856
13 13 16 100 0.177949
14 13 16 100 0.191046
15 13 16 100 0.171292
16 13 16 100 0.195075
0 14 16 100 0.0261009
1 14 16 100 0.00254994
2 14 16 100 0.00338112
3 14 16 100 0.000974532
4 14 16 100 0.000887916
5 14 16 100 0.00409527
6 14 16 100 0.00275979
7 14 16 100 0.0076588
8 14 16 100 0.00899181
9 14 16 100 0.0106262
10 14 16 100 0.0121705
11 14 16 100 0.0362986
12 14 16 100 0.0741113
13 14 16 100 0.141482
14 14 16 100 0.199814
15 14 16 100 0.208164
16 14 16 100 0.259934
0 15 16 100 0.02456
1 15 16 100 3.21446e-06
2 15 16 100 0.00604315
3 15 16 100 0.00443112
4 15 16 100 0.00261641
5 15 16 100 0.004001
6 15 16 100 0.00477015
7 15 16 100 0.00306526
8 15 16 100 0.00724503
9 15 16 100 0.00359914
10 15 16 100 0.012698
11 15 16 100 0.0248046
12 15 16 100 0.0514205
13 15 16 100 0.0915528
14 15 16 100 0.21462
15 15 16 100 0.202422
16 15 16 100 0.342148
0 16 16 100 0.0224136
1 16 16 100 0.00566806
2 16 16 100 0.00182928
3 16 16 100 0.00265802
4 16 16 100 0.00601568
5 16 16 100 0.00201079
6 16 16 100 0.00203462
7 16 16 100 0.00570865
8 16 16 100 0.000106294
9 16 16 100 0.00584702
10 16 16 100 0.00403552
11 16 16 100 0.0158229
12 16 16 100 0.0556939
13 16 16 100 0.0930239
14 16 16 100 0.138097
15 16 16 100 0.235799
16 16 16 100 0.403236
0 17 16 100 0.0301897
1 17 16 100 0.000118206
2 17 16 100 0.00766252
3 17 16 100 8.37902e-05
4 17 16 100 0.00436362
5 17 16 100 0.00392751
6 17 16 100 0.00817072
7 17 16 100 0.00402604
8 17 16 100 1.60213e-06
9 17 16 100 0.00440298
10 17 16 100 0.0193083
11 17 16 100 0.0117829
12 17 16 100 0.0312743
13 17 16 100 0.0967026
14 17 16 100 0.116979
15 17 16 100 0.232683
16 17 16 100 0.428323
0 18 16 100 0.0251451
1 18 16 100 0.000166103
2 18 16 100 0.00847025
3 18 16 100 0.00847459
4 18 16 100 0.00846217
5 18 16 100 0.0163637
6 18 16 100 0.00848791
7 18 16 100 6.46019e-05
8 18 16 100 0.000323927
9 18 16 100 5.75442e-06
10 18 16 100 0.000257027
11 18 16 100 0.00152145
12 18 16 100 0.00853431
13 18 16 100 0.126852
14 18 16 100 0.127734
15 18 16 100 0.194506
16 18 16 100 0.464631
0 19 16 100 0.10508
1 19 16 100 1.60143e-05
3 19 16 100 3.38395e-06
4 19 16 100 0.00156359
6 19 16 100 0.0444523
7 19 16 100 0.0692922
8 19 16 100 0.0224495
9 19 16 100 0.000129073
11 19 16 100 0.00268284
12 19 16 100 0.0249611
13 19 16 100 0.0862267
14 19 16 100 0.1383
15 19 16 100 0.151797
16 19 16 100 0.353047
0 20 16 100 0.106627
1 20 16 100 0.000290523
2 20 16 100 0.000223082
3 20 16 100 2.04825e-05
4 20 16 100 0.0380464
5 20 16 100 0.000662319
6 20 16 100 0.00497321
7 20 16 100 0.077701
8 20 16 100 0.000384584
9 20 16 100 9.99885e-06
10 20 16 100 0.0383618
11 20 16 100 0.0476829
12 20 16 100 0.0384657
13 20 16 100 2.07953e-05
14 20 16 100 0.114718
15 20 16 100 0.153818
16 20 16 100 0.377994
0 21 16 100 0.0622268
3 21 16 100 0.0624996
6 21 16 100 0.0624991
7 21 16 100 0.0625001
8 21 16 100 3.35235e-06
9 21 16 100 0.000480729
10 21 16 100 0.0625001
11 21 16 100 0.00141731
13 21 16 100 0.0624995
14 21 16 100 0.0625552
15 21 16 100 0.125252
16 21 16 100 0.435566
0 22 16 100 0.0281588
1 22 16 100 2.48975e-05
7 22 16 100 0.1969
8 22 16 100 0.124873
9 22 16 100 0.0103001
13 22 16 100 0.00976487
14 22 16 100 0.00497778
15 22 16 100 0.25
16 22 16 100 0.375
0 23 16 100 0.249817
7 23 16 100 0.00011592
10 23 16 100 6.3569e-05
11 23 16 100 0.250001
15 23 16 100 0.250001
16 23 16 100 0.250001
12 24 16 100 0.499998
16 24 16 100 0.500002
0 25 16 100 0.470663
3 25 16 100 0.00813766
7 25 16 100 1.60202e-05
13 25 16 100 0.521183
15 26 16 100 0.5
16 26 16 100 0.5
8 27 16 100 0.00055465
14 27 16 100 0.999445
16 28 16 100 1
0 29 16 100 0.990395
3 29 16 100 0.000148702
7 29 16 100 5.18245e-05
11 29 16 100 0.000132937
13 29 16 100 0.000562585
14 29 16 100 0.000804722
15 29 16 100 0.0038418
16 29 16 100 0.00406278
6 30 16 100 1
6 31 16 100 1
0 32 16 100 0.0134593
7 32 16 100 0.985481
13 32 16 100 0.00105928
0 33 16 100 0.0957963
11 33 16 100 0.904204
14 34 16 100 1
0 35 16 100 0.00406394
16 35 16 100 0.995936
0 36 16 100 0.091914
11 36 16 100 0.908086
14 37 16 100 1
6 38 16 100 1
0 39 16 100 0.0152886
1 39 16 100 0.983475
8 39 16 100 0.00123615
5 40 16 100 1
4 41 16 100 1
2 42 16 100 1
6 43 16 100 1
0 44 16 100 0.00612019
7 44 16 100 0.993829
13 44 16 100 5.09425e-05
0 45 16 100 0.0182972
1 45 16 100 0.00123449
8 45 16 100 0.980468
9 46 16 100 1
6 47 16 100 1
0 48 16 100 0.00022295
7 48 16 100 0.999765
13 48 16 100 1.19913e-05
0 49 16 100 0.0354392
10 49 16 100 0.964561
0 50 16 100 0.137265
11 50 16 100 0.862735
14 51 16 100 1
11 52 16 100 7.76985e-05
12 52 16 100 0.999922
0 53 16 100 0.981887
11 53 16 100 5.91916e-05
15 53 16 100 0.0180543
16 54 16 100 1
0 1 17 100 0.0270615
1 1 17 100 0.71476
2 1 17 100 0.0931574
3 1 17 100 0.0523739
4 1 17 100 0.0277253
5 1 17 100 0.0305315
6 1 17 100 0.0177532
7 1 17 100 0.00748043
8 1 17 100 0.00674621
9 1 17 100 0.00401721
10 1 17 100 0.00405302
11 1 17 100 0.00317198
12 1 17 100 0.00156439
13 1 17 100 0.0014028
14 1 17 100 0.00157092
15 1 17 100 0.000372123
16 1 17 100 0.00131712
17 1 17 100 0.00494091
0 2 17 100 0.0165642
1 2 17 100 0.0915109
2 2 17 100 0.474321
3 2 17 100 0.164598
4 2 17 100 0.111425
5 2 17 100 0.0501393
6 2 17 100 0.0332981
7 2 17 100 0.0195786
8 2 17 100 0.0148226
9 2 17 100 0.00865153
10 2 17 100 0.00220056
11 2 17 100 0.00158019
12 2 17 100 0.00157266
13 2 17 100 0.00129538
14 2 17 100 0.00177856
15 2 17 100 0.00190851
16 2 17 100 0.0018688
17 2 17 100 0.0028848
0 3 17 100 0.0256071
1 3 17 100 0.046556
2 3 17 100 0.174824
3 3 17 100 0.391644
4 3 17 100 0.164849
5 3 17 100 0.090435
6 3 17 100 0.0388811
7 3 17 100 0.0222492
8 3 17 100 0.0142852
9 3 17 100 0.00541521
10 3 17 100 0.00718425
11 3 17 100 0.00448096
12 3 17 100 0.00215537
13 3 17 100 0.00217229
14 3 17 100 0.00103316
15 3 17 100 0.00148928
16 3 17 100 0.00401387
17 3 17 100 0.00272417
0 4 17 100 0.0208071
1 4 17 100 0.0218939
2 4 17 100 0.0506977
3 4 17 100 0.123721
4 4 17 100 0.332068
5 4 17 100 0.190036
6 4 17 100 0.116418
7 4 17 100 0.0577964
8 4 17 100 0.0328256
9 4 17 100 0.0135578
10 4 17 100 0.0122368
11 4 17 100 0.00920093
12 4 17 100 0.0044578
13 4 17 100 0.00230992
14 4 17 100 0.00325142
15 4 17 100 0.00240988
16 4 17 100 0.0024817
17 4 17 100 0.00383035
0 5 17 100 0.0170381
1 5 17 100 0.0163522
2 5 17 100 0.0226471
3 5 17 100 0.0439875
4 5 17 100 0.10353
5 5 17 100 0.290282
6 5 17 100 0.217973
7 5 17 100 0.121411
8 5 17 100 0.0601011
9 5 17 100 0.0386574
10 5 17 100 0.020864
11 5 17 100 0.0161528
12 5 17 100 0.00799486
13 5 17 100 0.0062262
14 5 17 100 0.00383446
15 5 17 100 0.00216959
16 5 17 100 0.00354345
17 5 17 100 0.00723507
0 6 17 100 0.0156836
1 6 17 100 0.00781634
2 6 17 100 0.0151666
3 6 17 100 0.017119
4 6 17 100 0.0489267
5 6 17 100 0.099395
6 6 17 100 0.241739
7 6 17 100 0.203531
8 6 17 100 0.144132
9 6 17 100 0.0783652
10 6 17 100 0.0485212
11 6 17 100 0.0257048
12 6 17 100 0.0156568
13 6 17 100 0.0106332
14 6 17 100 0.00569946
15 6 17 100 0.0064951
16 6 17 100 0.00902479
17 6 17 100 0.00639021
0 7 17 100 0.021419
1 7 17 100 0.00783222
2 7 17 100 0.00707867
3 7 17 100 0.0100057
4 7 17 100 0.0171386
5 7 17 100 0.0377172
6 7 17 100 0.102423
7 7 17 100 0.217642
8 7 17 100 0.20667
9 7 17 100 0.150932
10 7 17 100 0.0830484
11 7 17 100 0.0495662
12 7 17 100 0.0335356
13 7 17 100 0.016085
14 7 17 100 0.0123126
15 7 17 100 0.00539458
16 7 17 100 0.00979252
17 7 17 100 0.0114073
0 8 17 100 0.0199959
1 8 17 100 0.00343369
2 8 17 100 0.003419
3 8 17 100 0.00612789
4 8 17 100 0.0104602
5 8 17 100 0.0180351
6 8 17 100 0.0402356
7 8 17 100 0.0951015
8 8 17 100 0.185684
9 8 17 100 0.204335
10 8 17 100 0.148953
11 8 17 100 0.108104
12 8 17 100 0.0647448
13 8 17 100 0.0349163
14 8 17 100 0.0163182
15 8 17 100 0.0121739
16 8 17 100 0.0114325
17 8 17 100 0.0165284
0 9 17 100 0.024312
1 9 17 100 0.00270614
2 9 17 100 0.00198892
3 9 17 100 0.00531991
4 9 17 100 0.00360241
5 9 17 100 0.0121717
6 9 17 100 0.0226283
7 9 17 100 0.0375539
8 9 17 100 0.0949834
9 9 17 100 0.17062
10 9 17 100 0.189068
11 9 17 100 0.156676
12 9 17 100 0.0992991
13 9 17 100 0.0651421
14 9 17 100 0.0447421
15 9 17 100 0.0262151
16 9 17 100 0.0190216
17 9 17 100 0.0239495
0 10 17 100 0.0296724
1 10 17 100 0.00363153
2 10 17 100 0.00330816
3 10 17 100 0.00388228
4 10 17 100 0.00395406
5 10 17 100 0.00429703
6 10 17 100 0.0132998
7 10 17 100 0.0159588
8 10 17 100 0.0409126
9 10 17 100 0.0862182
10 10 17 100 0.153875
11 10 17 100 0.190454
12 10 17 100 0.143145
13 10 17 100 0.116353
14 10 17 100 0.060679
15 10 17 100 0.0437519
16 10 17 100 0.0412636
17 10 17 100 0.0453434
0 11 17 100 0.023842
1 11 17 100 0.0021736
2 11 17 100 0.00107825
3 11 17 100 0.00404769
4 11 17 100 0.00317744
5 11 17 100 0.00287384
6 11 17 100 0.0044602
7 11 17 100 0.0151768
8 11 17 100 0.0215865
9 11 17 100 0.038445
10 11 17 100 0.0841083
11 11 17 100 0.137816
12 11 17 100 0.191877
13 11 17 100 0.14879
14 11 17 100 0.115497
15 11 17 100 0.0793041
16 11 17 100 0.0507664
17 11 17 100 0.0749795
0 12 17 100 0.025581
1 12 17 100 0.00224189
2 12 17 100 0.00207837
3 12 17 100 0.00295642
4 12 17 100 0.00283633
5 12 17 100 0.00225809
6 12 17 100 0.00327808
7 12 17 100 0.00252293
8 12 17 100 0.0146916
9 12 17 100 0.0189363
10 12 17 100 0.0395274
11 12 17 100 0.0758836
12 12 17 100 0.134025
13 12 17 100 0.189363
14 12 17 100 0.161099
15 12 17 100 0.113087
16 12 17 100 0.0945303
17 12 17 100 0.115105
0 13 17 100 0.0257426
1 13 17 100 0.00023743
2 13 17 100 0.000682105
3 13 17 100 0.00316297
4 13 17 100 0.00180031
5 13 17 100 0.00300824
6 13 17 100 0.00243414
7 13 17 100 0.00529063
8 13 17 100 0.00686771
9 13 17 100 0.0118001
10 13 17 100 0.0264791
11 13 17 100 0.0463297
12 13 17 100 0.0862656
13 13 17 100 0.133317
14 13 17 100 0.19424
15 13 17 100 0.177935
16 13 17 100 0.12767
17 13 17 100 0.146737
0 14 17 100 0.0235354
1 14 17 100 0.0015959
2 14 17 100 0.00141601
3 14 17 100 0.000804431
4 14 17 100 0.00133881
5 14 17 100 0.00331843
6 14 17 100 0.00212555
7 14 17 100 0.00297388
8 14 17 100 0.00223347
9 14 17 100 0.00810609
10 14 17 100 0.0178001
11 14 17 100 0.0221281
12 14 17 100 0.0485132
13 14 17 100 0.115286
14 14 17 100 0.16412
15 14 17 100 0.207705
16 14 17 100 0.1676
17 14 17 100 0.209399
0 15 17 100 0.0270202
1 15 17 100 0.00176345
2 15 17 100 0.00172595
3 15 17 100 0.00481912
4 15 17 100 0.0019661
5 15 17 100 0.000375868
6 15 17 100 0.00326676
7 15 17 100 0.00520704
8 15 17 100 0.00164774
9 15 17 100 0.00562592
10 15 17 100 0.00968101
11 15 17 100 0.0248838
12 15 17 100 0.0464221
13 15 17 100 0.0642445
14 15 17 100 0.12034
15 15 17 100 0.201888
16 15 17 100 0.211333
17 15 17 100 0.267789
0 16 17 100 0.0326425
1 16 17 100 0.00117332
2 16 17 100 0.00339371
3 16 17 100 0.00389578
4 16 17 100 0.00248987
5 16 17 100 0.00253213
6 16 17 100 0.00122845
7 16 17 100 0.00456364
8 16 17 100 0.00497162
9 16 17 100 0.00491295
10 16 17 100 0.00744764
11 16 17 100 0.0148533
12 16 17 100 0.0308943
13 16 17 100 0.040656
14 16 17 100 0.0909363
15 16 17 100 0.180501
16 16 17 100 0.218057
17 16 17 100 0.35485
0 17 17 100 0.0286185
1 17 17 100 0.000290972
2 17 17 100 0.00496273
3 17 17 100 0.00440001
4 17 17 100 0.00212289
5 17 17 100 0.0043863
6 17 17 100 0.00201857
7 17 17 100 0.00249054
8 17 17 100 0.00232333
9 17 17 100 0.00256703
10 17 17 100 0.00635104
11 17 17 100 0.0249919
12 17 17 100 0.0146927
13 17 17 100 0.0520213
14 17 17 100 0.0837758
15 17 17 100 0.136077
16 17 17 100 0.229388
17 17 17 100 0.398521
0 18 17 100 0.014742
1 18 17 100 0.0039919
2 18 17 100 3.24968e-05
3 18 17 100 0.00400042
4 18 17 100 0.0014878
5 18 17 100 2.24579e-06
6 18 17 100 1.5308e-06
7 18 17 100 0.00462533
8 18 17 100 0.00781514
9 18 17 100 0.00400864
10 18 17 100 0.0119948
11 18 17 100 0.00428739
12 18 17 100 0.0397623
13 18 17 100 0.0538506
14 18 17 100 0.0873674
15 18 17 100 0.129527
16 18 17 100 0.224002
17 18 17 100 0.4085
0 19 17 100 0.0237751
2 19 17 100 0.00826596
3 19 17 100 1.27103e-05
5 19 17 100 8.02965e-06
6 19 17 100 0.00825163
7 19 17 100 6.80402e-05
8 19 17 100 5.80271e-06
9 19 17 100 0.00826578
10 19 17 100 4.25668e-05
11 19 17 100 0.0272171
12 19 17 100 0.00840432
13 19 17 100 0.0496179
14 19 17 100 0.0578369
15 19 17 100 0.150921
16 19 17 100 0.191263
17 19 17 100 0.466044
0 20 17 100 0.069245
1 20 17 100 4.04063e-07
2 20 17 100 5.6596e-05
3 20 17 100 3.98613e-05
4 20 17 100 0.00101637
7 20 17 100 0.0142146
8 20 17 100 0.0175371
9 20 17 100 2.24854e-06
11 20 17 100 0.0175453
12 20 17 100 1.11982e-05
13 20 17 100 0.0702462
14 20 17 100 0.105241
15 20 17 100 0.0876679
16 20 17 100 0.210626
17 20 17 100 0.40655
0 21 17 100 0.0383169
1 21 17 100 0.00493397
2 21 17 100 8.89266e-05
5 21 17 100 1.55585e-05
9 21 17 100 0.0738468
10 21 17 100 0.0337148
11 21 17 100 1.20799e-05
13 21 17 100 0.00198732
14 21 17 100 0.0645239
15 21 17 100 0.108686
16 21 17 100 0.174085
17 21 17 100 0.499789
2 22 17 100 0.0769231
4 22 17 100 3.23782e-06
9 22 17 100 5.95434e-06
10 22 17 100 0.0769231
11 22 17 100 0.0769199
15 22 17 100 0.000463668
16 22 17 100 0.384615
17 22 17 100 0.384146
7 23 17 100 0.000183344
11 23 17 100 0.249816
15 23 17 100 0.5
17 23 17 100 0.25
12 24 17 100 0.333333
17 24 17 100 0.666667
0 25 17 100 0.000114674
13 25 17 100 0.980286
15 25 17 100 0.0195621
16 25 17 100 3.71585e-05
0 26 17 100 1.5819e-05
15 26 17 100 0.999984
17 27 17 100 1
0 1 18 100 0.0255006
1 1 18 100 0.754126
2 1 18 100 0.0767474
3 1 18 100 0.0466648
4 1 18 100 0.0262147
5 1 18 100 0.0186055
6 1 18 100 0.0115011
7 1 18 100 0.0117781
8 1 18 100 0.00782957
9 1 18 100 0.0070131
10 1 18 100 0.00317485
11 1 18 100 0.00122435
12 1 18 100 0.00343788
13 1 18 100 0.00118119
14 1 18 100 0.00057472
15 1 18 100 0.000777436
16 1 18 100 0.000568543
17 1 18 100 0.00103743
18 1 18 100 0.00204333
0 2 18 100 0.0228848
1 2 18 100 0.0903316
2 2 18 100 0.468057
3 2 18 100 0.172536
4 2 18 100 0.108249
5 2 18 100 0.0448808
6 2 18 100 0.0343411
7 2 18 100 0.0193912
8 2 18 100 0.0119188
9 2 18 100 0.00598126
10 2 18 100 0.00649078
11 2 18 100 0.00314455
12 2 18 100 0.00148528
13 2 18 100 0.00356947
14 2 18 100 0.00129641
15 2 18 100 0.0011514
16 2 18 100 0.00177736
17 2 18 100 0.00104464
18 2 18 100 0.00146863
0 3 18 100 0.0194259
1 3 18 100 0.0335175
2 3 18 100 0.196948
3 3 18 100 0.387308
4 3 18 100 0.164806
5 3 18 100 0.0753521
6 3 18 100 0.0416876
7 3 18 100 0.0237451
8 3 18 100 0.0138521
9 3 18 100 0.0125177
10 3 18 100 0.00834709
11 3 18 100 0.00510134
12 3 18 100 0.0043099
13 3 18 100 0.00190788
14 3 18 100 0.004971
15 3 18 100 0.00138499
16 3 18 100 0.00133237
17 3 18 100 0.000773509
18 3 18 100 0.00271185
0 4 18 100 0.0259989
1 4 18 100 0.0210432
2 4 18 100 0.060279
3 4 18 100 0.118699
4 4 18 100 0.355141
5 4 18 100 0.189217
6 4 18 100 0.095767
7 4 18 100 0.053928
8 4 18 100 0.0255932
9 4 18 100 0.01526
10 4 18 100 0.0132278
11 4 18 100 0.00370346
12 4 18 100 0.00651792
13 4 18 100 0.00541216
14 4 18 100 0.00391
15 4 18 100 0.00125857
16 4 18 100 0.00253106
17 4 18 100 0.000538499
18 4 18 100 0.00197469
0 5 18 100 0.024995
1 5 18 100 0.0149726
2 5 18 100 0.0357809
3 5 18 100 0.0407663
4 5 18 100 0.105776
5 5 18 100 0.303052
6 5 18 100 0.207173
7 5 18 100 0.118246
8 5 18 100 0.0573161
9 5 18 100 0.0366236
10 5 18 100 0.0198
11 5 18 100 0.0124896
12 5 18 100 0.00454117
13 5 18 100 0.00670715
14 5 18 100 0.00257394
15 5 18 100 0.00212637
16 5 18 100 0.00152722
17 5 18 100 0.00126086
18 5 18 100 0.00427246
0 6 18 100 0.0213535
1 6 18 100 0.00909858
2 6 18 100 0.0155963
3 6 18 100 0.0233398
4 6 18 100 0.0414605
5 6 18 100 0.113786
6 6 18 100 0.243502
7 6 18 100 0.201241
8 6 18 100 0.141888
9 6 18 100 0.0802945
10 6 18 100 0.0394124
11 6 18 100 0.0236137
12 6 18 100 0.0172977
13 6 18 100 0.00621234
14 6 18 100 0.00575772
15 6 18 100 0.00221752
16 6 18 100 0.00279758
17 6 18 100 0.00472623
18 6 18 100 0.00640362
0 7 18 100 0.0178487
1 7 18 100 0.00446315
2 7 18 100 0.00892069
3 7 18 100 0.0183495
4 7 18 100 0.0149348
5 7 18 100 0.0388337
6 7 18 100 0.113698
7 7 18 100 0.213474
8 7 18 100 0.218365
9 7 18 100 0.136292
10 7 18 100 0.0895781
11 7 18 100 0.0448547
12 7 18 100 0.0302621
13 7 18 100 0.0177636
14 7 18 100 0.00712631
15 7 18 100 0.00588902
16 7 18 100 0.00680948
17 7 18 100 0.00405294
18 7 18 100 0.00848472
0 8 18 100 0.0246431
1 8 18 100 0.00442119
2 8 18 100 0.00451286
3 8 18 100 0.00540735
4 8 18 100 0.0109205
5 8 18 100 0.0179215
6 8 18 100 0.0490579
7 8 18 100 0.105302
8 8 18 100 0.198534
9 8 18 100 0.2011
10 8 18 100 0.133568
11 8 18 100 0.105569
12 8 18 100 0.0461756
13 8 18 100 0.0381646
14 8 18 100 0.0175886
15 8 18 100 0.0104899
16 8 18 100 0.00895307
17 8 18 100 0.00709143
18 8 18 100 0.0105807
0 9 18 100 0.0241645
1 9 18 100 0.00183843
2 9 18 100 0.0030628
3 9 18 100 0.00485251
4 9 18 100 0.00424589
5 9 18 100 0.0145407
6 9 18 100 0.0239263
7 9 18 100 0.0377158
8 9 18 100 0.0950402
9 9 18 100 0.18076
10 9 18 100 0.189499
11 9 18 100 0.144535
12 9 18 100 0.10437
13 9 18 100 0.0619587
14 9 18 100 0.0365438
15 9 18 100 0.0189737
16 9 18 100 0.0211833
17 9 18 100 0.0108011
18 9 18 100 0.0219875
0 10 18 100 0.0232534
1 10 18 100 0.00387448
2 10 18 100 0.00315789
3 10 18 100 0.00103314
4 10 18 100 0.00501626
5 10 18 100 0.00233244
6 10 18 100 0.0144023
7 10 18 100 0.0213564
8 10 18 100 0.0411663
9 10 18 100 0.0815552
10 10 18 100 0.162296
11 10 18 100 0.19203
12 10 18 100 0.149259
13 10 18 100 0.108633
14 10 18 100 0.0733031
15 10 18 100 0.0395267
16 10 18 100 0.0295642
17 10 18 100 0.0193206
18 10 18 100 0.0289202
0 11 18 100 0.0249443
1 11 18 100 0.00196144
2 11 18 100 0.00309521
3 11 18 100 0.00236828
4 11 18 100 0.00197329
5 11 18 100 0.00328724
6 11 18 100 0.00372113
7 11 18 100 0.0151562
8 11 18 100 0.0205379
9 11 18 100 0.0460228
10 11 18 100 0.0856803
11 11 18 100 0.153349
12 11 18 100 0.176822
13 11 18 100 0.142369
14 11 18 100 0.116881
15 11 18 100 0.0689519
16 11 18 100 0.0452214
17 11 18 100 0.0470626
18 11 18 100 0.0405956
0 12 18 100 0.0170342
1 12 18 100 0.00105818
2 12 18 100 0.000885946
3 12 18 100 0.00193913
4 12 18 100 0.00283893
5 12 18 100 0.00401319
6 12 18 100 0.00687817
7 12 18 100 0.00745631
8 12 18 100 0.00975916
9 12 18 100 0.0259137
10 12 18 100 0.0428758
11 12 18 100 0.0820484
12 12 18 100 0.151788
13 12 18 100 0.163656
14 12 18 100 0.154378
15 12 18 100 0.121808
16 12 18 100 0.0747353
17 12 18 100 0.0679887
18 12 18 100 0.062945
0 13 18 100 0.019557
1 13 18 100 0.000531958
2 13 18 100 0.00493023
3 13 18 100 0.00049605
4 13 18 100 0.0017398
5 13 18 100 0.000942776
6 13 18 100 0.00428268
7 13 18 100 0.00710885
8 13 18 100 0.00629996
9 13 18 100 0.0110664
10 13 18 100 0.0242472
11 13 18 100 0.0464459
12 13 18 100 0.0860464
13 13 18 100 0.147662
14 13 18 100 0.170098
15 13 18 100 0.147659
16 13 18 100 0.123418
17 13 18 100 0.0865929
18 13 18 100 0.110874
0 14 18 100 0.0247707
1 14 18 100 0.000674337
2 14 18 100 0.000745678
3 14 18 100 0.00314934
4 14 18 100 0.00315722
5 14 18 100 0.00285271
6 14 18 100 0.00459408
7 14 18 100 0.00319673
8 14 18 100 0.00519084
9 14 18 100 0.00914492
10 14 18 100 0.01468
11 14 18 100 0.0261674
12 14 18 100 0.0481868
13 14 18 100 0.0970128
14 14 18 100 0.145716
15 14 18 100 0.163474
16 14 18 100 0.160312
17 14 18 100 0.126247
18 14 18 100 0.160726
0 15 18 100 0.0244154
1 15 18 100 0.000697022
2 15 18 100 0.000151696
3 15 18 100 0.00410997
4 15 18 100 0.00281936
5 15 18 100 0.00400383
6 15 18 100 0.00352959
7 15 18 100 0.00204961
8 15 18 100 0.0010777
9 15 18 100 0.00362265
10 15 18 100 0.0133109
11 15 18 100 0.0122275
12 15 18 100 0.0377121
13 15 18 100 0.0547241
14 15 18 100 0.108687
15 15 18 100 0.163193
16 15 18 100 0.177454
17 15 18 100 0.181349
18 15 18 100 0.204865
0 16 18 100 0.0229569
1 16 18 100 0.00149594
2 16 18 100 0.00368567
3 16 18 100 0.00248623
4 16 18 100 0.00179133
5 16 18 100 0.0026789
6 16 18 100 0.00220019
7 16 18 100 0.00366925
8 16 18 100 0.0055136
9 16 18 100 0.00264861
10 16 18 100 0.0116622
11 16 18 100 0.00815768
12 16 18 100 0.0131058
13 16 18 100 0.0397251
14 16 18 100 0.0709883
15 16 18 100 0.13446
16 16 18 100 0.182513
17 16 18 100 0.207307
18 16 18 100 0.282955
0 17 18 100 0.0257793
1 17 18 100 0.00385262
2 17 18 100 0.00127857
3 17 18 100 0.0025904
4 17 18 100 0.00161876
5 17 18 100 0.00129007
6 17 18 100 0.00127904
7 17 18 100 0.00888965
8 17 18 100 0.00391307
9 17 18 100 0.0100514
10 17 18 100 0.00895613
11 17 18 100 0.0128197
12 17 18 100 0.00799665
13 17 18 100 0.0197815
14 17 18 100 0.0551677
15 17 18 100 0.0986631
16 17 18 100 0.15925
17 17 18 100 0.23014
18 17 18 100 0.346682
0 18 18 100 0.0435286
1 18 18 100 2.90599e-05
2 18 18 100 0.00440545
3 18 18 100 0.00575792
4 18 18 100 1.85363e-05
5 18 18 100 3.19519e-05
6 18 18 100 0.00218464
7 18 18 100 0.00218212
8 18 18 100 0.00274981
9 18 18 100 0.0128456
10 18 18 100 0.0129289
11 18 18 100 0.0131316
12 18 18 100 0.0187535
13 18 18 100 0.0219001
14 18 18 100 0.0514273
15 18 18 100 0.101955
16 18 18 100 0.156802
17 18 18 100 0.202022
18 18 18 100 0.347346
0 19 18 100 0.0152225
1 19 18 100 0.00016308
2 19 18 100 0.00395303
3 19 18 100 8.864e-06
4 19 18 100 0.0117938
5 19 18 100 0.00395266
6 19 18 100 9.31118e-05
7 19 18 100 0.00395564
8 19 18 100 7.47855e-06
9 19 18 100 0.00790604
10 19 18 100 0.0154083
11 19 18 100 0.0157903
12 19 18 100 0.0118835
13 19 18 100 0.0314178
14 19 18 100 0.03167
15 19 18 100 0.0749372
16 19 18 100 0.171741
17 19 18 100 0.20881
18 19 18 100 0.391286
0 20 18 100 0.0281646
1 20 18 100 0.00714386
2 20 18 100 9.243e-06
3 20 18 100 0.00614879
4 20 18 100 0.00714286
5 20 18 100 0.0143074
6 20 18 100 3.25054e-06
7 20 18 100 1.14785e-06
8 20 18 100 9.30985e-05
9 20 18 100 0.00714571
10 20 18 100 0.0019674
11 20 18 100 0.00714283
12 20 18 100 0.0286163
13 20 18 100 0.0330266
14 20 18 100 0.04999
15 20 18 100 0.0648723
16 20 18 100 0.140278
17 20 18 100 0.178433
18 20 18 100 0.425514
0 21 18 100 0.0273553
1 21 18 100 0.0161405
2 21 18 100 0.0161394
5 21 18 100 1.60298e-05
6 21 18 100 0.0162273
8 21 18 100 0.000913421
10 21 18 100 0.0180668
12 21 18 100 7.76375e-05
13 21 18 100 0.0327365
14 21 18 100 0.0322246
15 21 18 100 0.0756134
16 21 18 100 0.144525
17 21 18 100 0.213042
18 21 18 100 0.406922
0 22 18 100 0.0781309
1 22 18 100 0.0312501
2 22 18 100 0.0312501
5 22 18 100 7.59698e-07
7 22 18 100 0.000209407
8 22 18 100 0.0071852
9 22 18 100 1.75852e-05
10 22 18 100 0.00790145
11 22 18 100 0.0313485
12 22 18 100 1.89016e-05
13 22 18 100 0.0270363
14 22 18 100 0.0937452
15 22 18 100 0.0354878
16 22 18 100 0.125019
17 22 18 100 0.218735
18 22 18 100 0.312664
0 23 18 100 0.170873
2 23 18 100 0.052239
6 23 18 100 0.00166397
8 23 18 100 0.01032
9 23 18 100 0.000345213
12 23 18 100 0.0999658
13 23 18 100 0.0109721
14 23 18 100 7.14501e-07
15 23 18 100 0.0500016
16 23 18 100 0.0536188
17 23 18 100 0.199955
18 23 18 100 0.350045
0 24 18 100 0.000519279
4 24 18 100 1.83461e-05
9 24 18 100 1.79622e-06
10 24 18 100 1.8641e-06
13 24 18 100 0.0908977
14 24 18 100 0.0909085
15 24 18 100 0.272677
16 24 18 100 0.0909164
17 24 18 100 0.0904141
18 24 18 100 0.363645
0 25 18 100 2.45689e-05
15 25 18 100 0.19994
16 25 18 100 0.200035
18 25 18 100 0.6
0 26 18 100 2.6761e-05
16 26 18 100 0.333333
17 26 18 100 0.333307
18 26 18 100 0.333333
14 27 18 100 0.333333
17 27 18 100 0.333333
18 27 18 100 0.333333
0 1 19 100 0.0240536
1 1 19 100 0.748491
2 1 19 100 0.0816451
3 1 19 100 0.0440116
4 1 19 100 0.0352118
5 1 19 100 0.0177056
6 1 19 100 0.0113953
7 1 19 100 0.00951888
8 1 19 100 0.00920979
9 1 19 100 0.00297421
10 1 19 100 0.00387207
11 1 19 100 0.00148577
12 1 19 100 0.00380923
13 1 19 100 0.00111791
14 1 19 100 0.0011633
15 1 19 100 0.000110409
16 1 19 100 0.000541141
17 1 19 100 0.00153643
18 1 19 100 0.000366102
19 1 19 100 0.00178039
0 2 19 100 0.0201792
1 2 19 100 0.0787643
2 2 19 100 0.453944
3 2 19 100 0.176934
4 2 19 100 0.134074
5 2 19 100 0.0491153
6 2 19 100 0.0308501
7 2 19 100 0.0155798
8 2 19 100 0.00863505
9 2 19 100 0.00852971
10 2 19 100 0.00545671
11 2 19 100 0.00424045
12 2 19 100 0.00117975
13 2 19 100 0.00157717
14 2 19 100 0.00218371
15 2 19 100 0.0017259
16 2 19 100 0.000380582
17 2 19 100 0.00243237
18 2 19 100 0.00154313
19 2 19 100 0.00267508
0 3 19 100 0.0213584
1 3 19 100 0.0386797
2 3 19 100 0.213393
3 3 19 100 0.36811
4 3 19 100 0.153099
5 3 19 100 0.0795503
6 3 19 100 0.0431746
7 3 19 100 0.0270333
8 3 19 100 0.0145549
9 3 19 100 0.0112899
10 3 19 100 0.00533356
11 3 19 100 0.00468992
12 3 19 100 0.00440894
13 3 19 100 0.00270808
14 3 19 100 0.00299623
15 3 19 100 0.000595091
16 3 19 100 0.00257495
17 3 19 100 0.00125082
18 3 19 100 0.000275856
19 3 19 100 0.00492419
0 4 19 100 0.0213037
1 4 19 100 0.021077
2 4 19 100 0.0538294
3 4 19 100 0.129322
4 4 19 100 0.337559
5 4 19 100 0.194967
6 4 19 100 0.088656
7 4 19 100 0.0552596
8 4 19 100 0.0328044
9 4 19 100 0.0199837
10 4 19 100 0.0134959
11 4 19 100 0.00543584
12 4 19 100 0.00760492
13 4 19 100 0.00411434
14 4 19 100 0.00355286
15 4 19 100 0.00230678
16 4 19 100 0.00170718
17 4 19 100 0.001883
18 4 19 100 0.00147918
19 4 19 100 0.00365794
0 5 19 100 0.0241223
1 5 19 100 0.012256
2 5 19 100 0.0228895
3 5 19 100 0.0362599
4 5 19 100 0.103678
5 5 19 100 0.285666
6 5 19 100 0.221438
7 5 19 100 0.115799
8 5 19 100 0.0673138
9 5 19 100 0.0422119
10 5 19 100 0.0209024
11 5 19 100 0.0127926
12 5 19 100 0.00689659
13 5 19 100 0.00481568
14 5 19 100 0.00918741
15 5 19 100 0.00333553
16 5 19 100 0.00410553
17 5 19 100 0.00124553
18 5 19 100 0.000828235
19 5 19 100 0.00425621
0 6 19 100 0.0224492
1 6 19 100 0.00562899
2 6 19 100 0.0153523
3 6 19 100 0.0180372
4 6 19 100 0.0371821
5 6 19 100 0.113619
6 6 19 100 0.237031
7 6 19 100 0.20832
8 6 19 100 0.135112
9 6 19 100 0.0830731
10 6 19 100 0.0446306
11 6 19 100 0.0283085
12 6 19 100 0.0181898
13 6 19 100 0.0114463
14 6 19 100 0.00394958
15 6 19 100 0.00601721
16 6 19 100 0.00170001
17 6 19 100 0.00110026
18 6 19 100 0.00511709
19 6 19 100 0.00373542
0 7 19 100 0.01599
1 7 19 100 0.00575144
2 7 19 100 0.00890011
3 7 19 100 0.00869615
4 7 19 100 0.0163068
5 7 19 100 0.0406374
6 7 19 100 0.112298
7 7 19 100 0.212661
8 7 19 100 0.21294
9 7 19 100 0.138833
10 7 19 100 0.0821234
11 7 19 100 0.0564358
12 7 19 100 0.0311431
13 7 19 100 0.0197315
14 7 19 100 0.0120411
15 7 19 100 0.00685321
16 7 19 100 0.00566719
17 7 19 100 0.0050085
18 7 19 100 0.00219889
19 7 19 100 0.00578261
0 8 19 100 0.0240926
1 8 19 100 0.00525038
2 8 19 100 0.00624052
3 8 19 100 0.0061087
4 8 19 100 0.0123266
5 8 19 100 0.0203774
6 8 19 100 0.0406308
7 8 19 100 0.0992888
8 8 19 100 0.187363
9 8 19 100 0.190549
10 8 19 100 0.148258
11 8 19 100 0.0887684
12 8 19 100 0.0650058
13 8 19 100 0.0418782
14 8 19 100 0.0238972
15 8 19 100 0.0131738
16 8 19 100 0.00655885
17 8 19 100 0.00656794
18 8 19 100 0.00652403
19 8 19 100 0.00713929
0 9 19 100 0.0211801
1 9 19 100 0.00163986
2 9 19 100 0.00602249
3 9 19 100 0.00323959
4 9 19 100 0.00378897
5 9 19 100 0.0114466
6 9 19 100 0.0186545
7 9 19 100 0.0372519
8 9 19 100 0.092107
9 9 19 100 0.168181
10 9 19 100 0.188211
11 9 19 100 0.149175
12 9 19 100 0.109449
13 9 19 100 0.072761
14 9 19 100 0.0425792
15 9 19 100 0.0274756
16 9 19 100 0.0145103
17 9 19 100 0.0111641
18 9 19 100 0.00931378
19 9 19 100 0.0118497
0 10 19 100 0.025796
1 10 19 100 0.0021978
2 10 19 100 0.00163642
3 10 19 100 0.00331735
4 10 19 100 0.00313921
5 10 19 100 0.0071142
6 10 19 100 0.0127888
7 10 19 100 0.0144836
8 10 19 100 0.0345573
9 10 19 100 0.0831107
10 10 19 100 0.168339
11 10 19 100 0.178281
12 10 19 100 0.141634
13 10 19 100 0.119012
14 10 19 100 0.0705701
15 10 19 100 0.0532485
16 10 19 100 0.0218813
17 10 19 100 0.0199599
18 10 19 100 0.0190062
19 10 19 100 0.0199263
0 11 19 100 0.0245798
1 11 19 100 0.00170203
2 11 19 100 0.00118926
3 11 19 100 0.00114289
4 11 19 100 0.00121776
5 11 19 100 0.00443894
6 11 19 100 0.0068981
7 11 19 100 0.0132592
8 11 19 100 0.0153232
9 11 19 100 0.0401934
10 11 19 100 0.0820383
11 11 19 100 0.147256
12 11 19 100 0.167512
13 11 19 100 0.144081
14 11 19 100 0.112577
15 11 19 100 0.0818168
16 11 19 100 0.0547905
17 11 19 100 0.0336389
18 11 19 100 0.0261308
19 11 19 100 0.040214
0 12 19 100 0.0285026
1 12 19 100 0.00324834
2 12 19 100 0.00174976
3 12 19 100 0.00225097
4 12 19 100 0.0017671
5 12 19 100 0.00250319
6 12 19 100 0.00361979
7 12 19 100 0.00563886
8 12 19 100 0.0112193
9 12 19 100 0.0213154
10 12 19 100 0.0377079
11 12 19 100 0.0888442
12 12 19 100 0.136144
13 12 19 100 0.161887
14 12 19 100 0.149883
15 12 19 100 0.114652
16 12 19 100 0.0878935
17 12 19 100 0.0530276
18 12 19 100 0.0418427
19 12 19 100 0.0463025
0 13 19 100 0.0234839
1 13 19 100 0.00292574
2 13 19 100 0.00229515
3 13 19 100 0.00226929
4 13 19 100 0.00276549
5 13 19 100 0.00225634
6 13 19 100 0.00407334
7 13 19 100 0.00529222
8 13 19 100 0.00632427
9 13 19 100 0.0118103
10 13 19 100 0.0195468
11 13 19 100 0.0396168
12 13 19 100 0.0766805
13 13 19 100 0.138276
14 13 19 100 0.167748
15 13 19 100 0.142789
16 13 19 100 0.122282
17 13 19 100 0.088488
18 13 19 100 0.0707696
19 13 19 100 0.0703075
0 14 19 100 0.0234181
1 14 19 100 0.0018683
2 14 19 100 0.00317994
3 14 19 100 0.00134176
4 14 19 100 0.00207845
5 14 19 100 0.0024601
6 14 19 100 0.00340613
7 14 19 100 0.0035038
8 14 19 100 0.00306921
9 14 19 100 0.00541311
10 14 19 100 0.0156621
11 14 19 100 0.0136812
12 14 19 100 0.045075
13 14 19 100 0.0842405
14 14 19 100 0.129442
15 14 19 100 0.152499
16 14 19 100 0.157
17 14 19 100 0.123822
18 14 19 100 0.103218
19 14 19 100 0.125622
0 15 19 100 0.0219369
1 15 19 100 0.00208147
2 15 19 100 0.000888133
3 15 19 100 0.00351942
4 15 19 100 0.000744886
5 15 19 100 0.00580898
6 15 19 100 0.00518768
7 15 19 100 0.00494283
8 15 19 100 0.00285584
9 15 19 100 0.00489767
10 15 19 100 0.00653671
11 15 19 100 0.0127429
12 15 19 100 0.0224734
13 15 19 100 0.0488665
14 15 19 100 0.0831663
15 15 19 100 0.140023
16 15 19 100 0.163698
17 15 19 100 0.157299
18 15 19 100 0.143831
19 15 19 100 0.1685
0 16 19 100 0.0253375
1 16 19 100 1.08908e-05
2 16 19 100 0.000814381
3 16 19 100 0.000949814
4 16 19 100 0.00315493
5 16 19 100 0.00196192
6 16 19 100 0.0024205
7 16 19 100 0.00198456
8 16 19 100 0.00311793
9 16 19 100 0.00410095
10 16 19 100 0.0054027
11 16 19 100 0.00835606
12 16 19 100 0.0145751
13 16 19 100 0.0279391
14 16 19 100 0.0501996
15 16 19 100 0.105476
16 16 19 100 0.170323
17 16 19 100 0.162472
18 16 19 100 0.169962
19 16 19 100 0.241441
0 17 19 100 0.0202427
1 17 19 100 0.0030575
2 17 19 100 0.00204516
3 17 19 100 0.00206139
4 17 19 100 7.62785e-05
5 17 19 100 0.00343279
6 17 19 100 0.00269736
7 17 19 100 0.00205913
8 17 19 100 0.00131783
9 17 19 100 0.00457847
10 17 19 100 0.00399977
11 17 19 100 0.00331135
12 17 19 100 0.00833127
13 17 19 100 0.0130978
14 17 19 100 0.0372065
15 17 19 100 0.0840196
16 17 19 100 0.113405
17 17 19 100 0.205757
18 17 19 100 0.214757
19 17 19 100 0.274546
0 18 19 100 0.0286412
1 18 19 100 0.000813519
2 18 19 100 0.00417899
3 18 19 100 0.0040629
4 18 19 100 0.00149736
5 18 19 100 0.00310081
6 18 19 100 0.000118683
7 18 19 100 0.00152885
8 18 19 100 0.00300472
9 18 19 100 0.00435148
10 18 19 100 0.00343283
11 18 19 100 0.00442818
12 18 19 100 0.00780651
13 18 19 100 0.0209079
14 18 19 100 0.0255265
15 18 19 100 0.0432564
16 18 19 100 0.104649
17 18 19 100 0.16652
18 18 19 100 0.233839
19 18 19 100 0.338336
0 19 19 100 0.0330722
1 19 19 100 5.98159e-05
2 19 19 100 5.2956e-05
3 19 19 100 0.000223292
4 19 19 100 2.54e-05
5 19 19 100 0.00261447
6 19 19 100 2.39495e-06
7 19 19 100 4.9209e-06
8 19 19 100 1.13498e-05
9 19 19 100 0.00327126
10 19 19 100 0.00529654
11 19 19 100 0.00596539
12 19 19 100 0.0150772
13 19 19 100 0.00526357
14 19 19 100 0.0177691
15 19 19 100 0.0373059
16 19 19 100 0.0708097
17 19 19 100 0.159232
18 19 19 100 0.266182
19 19 19 100 0.37776
0 20 19 100 0.019835
1 20 19 100 3.98143e-06
2 20 19 100 0.000211329
3 20 19 100 7.63948e-05
4 20 19 100 0.000108591
5 20 19 100 2.53438e-05
6 20 19 100 3.88565e-06
7 20 19 100 0.00503338
8 20 19 100 0.00473974
9 20 19 100 1.43302e-05
10 20 19 100 5.96862e-07
11 20 19 100 0.00479092
12 20 19 100 0.0140068
13 20 19 100 0.00493334
14 20 19 100 0.0280087
15 20 19 100 0.0278627
16 20 19 100 0.104183
17 20 19 100 0.101009
18 20 19 100 0.232521
19 20 19 100 0.452632
0 21 19 100 0.0293404
1 21 19 100 7.24287e-07
2 21 19 100 9.77181e-05
3 21 19 100 0.0104212
4 21 19 100 0.00929542
5 21 19 100 5.08893e-05
6 21 19 100 0.00103878
7 21 19 100 8.63183e-05
8 21 19 100 1.09258e-06
9 21 19 100 4.138e-07
10 21 19 100 1.62875e-06
11 21 19 100 0.0207276
12 21 19 100 0.00775969
13 21 19 100 1.66893e-06
14 21 19 100 0.0208378
15 21 19 100 0.0316167
16 21 19 100 0.0749812
17 21 19 100 0.0750596
18 21 19 100 0.155824
19 21 19 100 0.562857
0 22 19 100 0.037041
1 22 19 100 9.13535e-07
3 22 19 100 1.00095e-06
4 22 19 100 0.000169897
5 22 19 100 1.28098e-05
6 22 19 100 3.03006e-06
7 22 19 100 8.15373e-06
9 22 19 100 0.000105644
12 22 19 100 0.0277778
13 22 19 100 4.00691e-06
14 22 19 100 0.0276769
15 22 19 100 1.16126e-06
16 22 19 100 0.0831295
17 22 19 100 0.240963
18 22 19 100 0.27762
19 22 19 100 0.305486
0 23 19 100 0.0304821
4 23 19 100 8.33996e-07
6 23 19 100 0.000210056
7 23 19 100 0.00157286
8 23 19 100 0.0499999
9 23 19 100 0.00184879
10 23 19 100 7.17347e-05
12 23 19 100 0.0499987
14 23 19 100 0.0500176
15 23 19 100 0.0472966
16 23 19 100 0.120347
17 23 19 100 0.100012
18 23 19 100 0.0999999
19 23 19 100 0.448142
0 24 19 100 0.0914709
12 24 19 100 0.0909094
13 24 19 100 0.0909094
15 24 19 100 0.0909094
16 24 19 100 0.174215
17 24 19 100 0.0984059
18 24 19 100 0.0904211
19 24 19 100 0.272759
0 25 19 100 0.000375312
6 25 19 100 0.000198209
11 25 19 100 3.15821e-05
13 25 19 100 0.00625195
16 25 19 100 0.160038
18 25 19 100 0.333334
19 25 19 100 0.499771
12 26 19 100 8.55379e-06
14 26 19 100 0.249992
18 26 19 100 0.25
19 26 19 100 0.5
12 27 19 100 0.999984
14 27 19 100 1.63091e-05
0 28 19 100 0.996683
10 28 19 100 0.000136833
13 28 19 100 0.00297672
16 28 19 100 0.000173989
17 28 19 100 2.93331e-05
0 29 19 100 0.999678
10 29 19 100 1.32577e-05
13 29 19 100 0.00028018
15 29 19 100 1.09368e-05
16 29 19 100 1.74662e-05
12 30 19 100 1
12 31 19 100 1
12 32 19 100 1
0 33 19 100 5.7719e-05
14 33 19 100 0.00011529
19 33 19 100 0.999827
0 1 20 100 0.0262971
1 1 20 100 0.757591
2 1 20 100 0.080208
3 1 20 100 0.0440275
4 1 20 100 0.0251365
5 1 20 100 0.0167616
6 1 20 100 0.0141866
7 1 20 100 0.00519522
8 1 20 100 0.00767672
9 1 20 100 0.00339141
10 1 20 100 0.00107655
11 1 20 100 0.00287046
12 1 20 100 0.00360454
13 1 20 100 0.00260198
14 1 20 100 0.000988511
15 1 20 100 0.000648376
16 1 20 100 0.00154759
17 1 20 100 0.000258294
18 1 20 100 0.00202631
19 1 20 100 0.00225816
20 1 20 100 0.00164741
0 2 20 100 0.0208244
1 2 20 100 0.0739409
2 2 20 100 0.480944
3 2 20 100 0.172321
4 2 20 100 0.117001
5 2 20 100 0.0532137
6 2 20 100 0.0237578
7 2 20 100 0.0181593
8 2 20 100 0.0142643
9 2 20 100 0.0068041
10 2 20 100 0.00251709
11 2 20 100 0.00507078
12 2 20 100 0.002066
13 2 20 100 0.00122495
14 2 20 100 0.00135908
15 2 20 100 0.00112236
16 2 20 100 0.00138213
17 2 20 100 6.3792e-05
18 2 20 100 0.000947993
19 2 20 100 0.00289414
20 2 20 100 0.000121035
0 3 20 100 0.0269076
1 3 20 100 0.03932
2 3 20 100 0.18492
3 3 20 100 0.409602
4 3 20 100 0.164964
5 3 20 100 0.0687817
6 3 20 100 0.0385902
7 3 20 100 0.0243402
8 3 20 100 0.0113765
9 3 20 100 0.0110738
10 3 20 100 0.00518059
11 3 20 100 0.00197012
12 3 20 100 0.00116217
13 3 20 100 0.00225657
14 3 20 100 0.00158172
15 3 20 100 0.00160901
16 3 20 100 0.000645197
17 3 20 100 0.00178624
18 3 20 100 0.000591596
19 3 20 100 0.00152615
20 3 20 100 0.00181442
0 4 20 100 0.0194421
1 4 20 100 0.0181109
2 4 20 100 0.0695423
3 4 20 100 0.123716
4 4 20 100 0.342936
5 4 20 100 0.203287
6 4 20 100 0.101475
7 4 20 100 0.0475513
8 4 20 100 0.0278362
9 4 20 100 0.0157655
10 4 20 100 0.00847983
11 4 20 100 0.00431562
12 4 20 100 0.00453889
13 4 20 100 0.00178387
14 4 20 100 0.00209635
15 4 20 100 0.00256458
16 4 20 100 0.0021679
17 4 20 100 0.00058347
18 4 20 100 0.000716284
19 4 20 100 0.000480871
20 4 20 100 0.00261012
0 5 20 100 0.0218686
1 5 20 100 0.0117464
2 5 20 100 0.0258234
3 5 20 100 0.0392341
4 5 20 100 0.102742
5 5 20 100 0.309656
6 5 20 100 0.215466
7 5 20 100 0.119802
8 5 20 100 0.0581624
9 5 20 100 0.0330982
10 5 20 100 0.017945
11 5 20 100 0.0117171
12 5 20 100 0.0105493
13 5 20 100 0.00316933
14 5 20 100 0.00415226
15 5 20 100 0.00438355
16 5 20 100 0.000576678
17 5 20 100 0.0030233
18 5 20 100 0.00170741
19 5 20 100 0.00282652
20 5 20 100 0.00234945
0 6 20 100 0.0306435
1 6 20 100 0.00634471
2 6 20 100 0.0142434
3 6 20 100 0.0208689
4 6 20 100 0.0417483
5 6 20 100 0.103479
6 6 20 100 0.252136
7 6 20 100 0.219997
8 6 20 100 0.121921
9 6 20 100 0.0787437
10 6 20 100 0.0424777
11 6 20 100 0.0205416
12 6 20 100 0.0160349
13 6 20 100 0.00797419
14 6 20 100 0.00596518
15 6 20 100 0.00496785
16 6 20 100 0.00318048
17 6 20 100 0.00201511
18 6 20 100 0.00222252
19 6 20 100 0.00281346
20 6 20 100 0.00168153
0 7 20 100 0.0198391
1 7 20 100 0.00369782
2 7 20 100 0.0106289
3 7 20 100 0.00877542
4 7 20 100 0.0155202
5 7 20 100 0.0435666
6 7 20 100 0.104177
7 7 20 100 0.219197
8 7 20 100 0.229289
9 7 20 100 0.124606
10 7 20 100 0.0912163
11 7 20 100 0.0510021
12 7 20 100 0.0249536
13 7 20 100 0.0219883
14 7 20 100 0.0081732
15 7 20 100 0.00645561
16 7 20 100 0.00410895
17 7 20 100 0.00289413
18 7 20 100 0.00192281
19 7 20 100 0.00376815
20 7 20 100 0.00421905
0 8 20 100 0.0198113
1 8 20 100 0.00433336
2 8 20 100 0.00279144
3 8 20 100 0.00313693
4 8 20 100 0.00949329
5 8 20 100 0.0185929
6 8 20 100 0.0531549
7 8 20 100 0.0964414
8 8 20 100 0.202528
9 8 20 100 0.197949
10 8 20 100 0.151052
11 8 20 100 0.0812638
12 8 20 100 0.0552678
13 8 20 100 0.0335842
14 8 20 100 0.0216044
15 8 20 100 0.0164736
16 8 20 100 0.0109461
17 8 20 100 0.00532997
18 8 20 100 0.00258201
19 8 20 100 0.00480103
20 8 20 100 0.00886337
0 9 20 100 0.0228222
1 9 20 100 0.00211992
2 9 20 100 0.00321485
3 9 20 100 0.00374862
4 9 20 100 0.00346328
5 9 20 100 0.00991632
6 9 20 100 0.0193731
7 9 20 100 0.0398591
8 9 20 100 0.0951521
9 9 20 100 0.18482
10 9 20 100 0.187997
11 9 20 100 0.154342
12 9 20 100 0.0926351
13 9 20 100 0.0661422
14 9 20 100 0.0438288
15 9 20 100 0.0194252
16 9 20 100 0.0171733
17 9 20 100 0.0105735
18 9 20 100 0.00538042
19 9 20 100 0.00558168
20 9 20 100 0.012432
0 10 20 100 0.0264783
1 10 20 100 0.00251819
2 10 20 100 0.00190204
3 10 20 100 0.00182167
4 10 20 100 0.00263748
5 10 20 100 0.0032917
6 10 20 100 0.0149671
7 10 20 100 0.0203363
8 10 20 100 0.0427019
9 10 20 100 0.0895536
10 10 20 100 0.169323
11 10 20 100 0.17732
12 10 20 100 0.143595
13 10 20 100 0.0949289
14 10 20 100 0.0750083
15 10 20 100 0.0474011
16 10 20 100 0.0275617
17 10 20 100 0.0175278
18 10 20 100 0.0114756
19 10 20 100 0.0160662
20 10 20 100 0.013584
0 11 20 100 0.0233499
1 11 20 100 0.000647353
2 11 20 100 0.0014075
3 11 20 100 0.00245567
4 11 20 100 0.00345397
5 11 20 100 0.00224759
6 11 20 100 0.00383044
7 11 20 100 0.0134463
8 11 20 100 0.0213856
9 11 20 100 0.0465977
10 11 20 100 0.0890089
11 11 20 100 0.15563
12 11 20 100 0.175213
13 11 20 100 0.141459
14 11 20 100 0.111575
15 11 20 100 0.0708005
16 11 20 100 0.0481434
17 11 20 100 0.0349045
18 11 20 100 0.0154623
19 11 20 100 0.0171057
20 11 20 100 0.0218749
0 12 20 100 0.0207616
1 12 20 100 3.88575e-05
2 12 20 100 0.0015987
3 12 20 100 0.00323636
4 12 20 100 0.00276273
5 12 20 100 0.0030105
6 12 20 100 0.00387364
7 12 20 100 0.00558883
8 12 20 100 0.0121605
9 12 20 100 0.0239767
10 12 20 100 0.0510405
11 12 20 100 0.0838882
12 12 20 100 0.140255
13 12 20 100 0.17223
14 12 20 100 0.146308
15 12 20 100 0.108108
16 12 20 100 0.069819
17 12 20 100 0.0502813
18 12 20 100 0.0366031
19 12 20 100 0.0289543
20 12 20 100 0.0355044
0 13 20 100 0.0256179
1 13 20 100 0.00132425
2 13 20 100 0.000104788
3 13 20 100 0.00161583
4 13 20 100 0.0012731
5 13 20 100 0.00403321
6 13 20 100 0.00236234
7 13 20 100 0.00187711
8 13 20 100 0.00731368
9 13 20 100 0.0154665
10 13 20 100 0.0174347
11 13 20 100 0.0451506
12 13 20 100 0.0922487
13 13 20 100 0.125479
14 13 20 100 0.159848
15 13 20 100 0.150757
16 13 20 100 0.109561
17 13 20 100 0.0773856
18 13 20 100 0.0533349
19 13 20 100 0.0499365
20 13 20 100 0.0578746
0 14 20 100 0.0265056
1 14 20 100 0.000935538
2 14 20 100 0.00115346
3 14 20 100 0.00182826
4 14 20 100 0.0017375
5 14 20 100 0.00129418
6 14 20 100 0.00240867
7 14 20 100 0.00271725
8 14 20 100 0.000713582
9 14 20 100 0.0072546
10 14 20 100 0.0124095
11 14 20 100 0.0206544
12 14 20 100 0.0437709
13 14 20 100 0.0885869
14 14 20 100 0.128367
15 14 20 100 0.157052
16 14 20 100 0.158731
17 14 20 100 0.113868
18 14 20 100 0.0889502
19 14 20 100 0.066099
20 14 20 100 0.0749622
0 15 20 100 0.0246979
1 15 20 100 0.00181946
2 15 20 100 0.00135324
3 15 20 100 0.00122449
4 15 20 100 0.00146817
5 15 20 100 0.00345285
6 15 20 100 0.00215789
7 15 20 100 0.00324704
8 15 20 100 0.00190589
9 15 20 100 0.00547332
10 15 20 100 0.00613428
11 15 20 100 0.010266
12 15 20 100 0.030265
13 15 20 100 0.0457776
14 15 20 100 0.0890876
15 15 20 100 0.142063
16 15 20 100 0.148557
17 15 20 100 0.144464
18 15 20 100 0.112865
19 15 20 100 0.0994239
20 15 20 100 0.124297
0 16 20 100 0.0183849
1 16 20 100 0.0006509
2 16 20 100 0.00135062
3 16 20 100 6.15226e-05
4 16 20 100 0.00200656
5 16 20 100 0.000835586
6 16 20 100 0.00198661
7 16 20 100 0.000849196
8 16 20 100 0.00266428
9 16 20 100 0.00255195
10 16 20 100 0.00585694
11 16 20 100 0.00842053
12 16 20 100 0.0119387
13 16 20 100 0.0298352
14 16 20 100 0.0479094
15 16 20 100 0.0932918
16 16 20 100 0.153706
17 16 20 100 0.167569
18 16 20 100 0.152764
19 16 20 100 0.13474
20 16 20 100 0.162626
0 17 20 100 0.0247454
1 17 20 100 0.00179845
2 17 20 100 0.000781171
3 17 20 100 0.000889024
4 17 20 100 0.0017826
5 17 20 100 0.00155274
6 17 20 100 0.00102717
7 17 20 100 0.00313277
8 17 20 100 0.00311977
9 17 20 100 0.00243562
10 17 20 100 0.0039198
11 17 20 100 0.00551078
12 17 20 100 0.00856136
13 17 20 100 0.0191283
14 17 20 100 0.0316372
15 17 20 100 0.0605043
16 17 20 100 0.106041
17 17 20 100 0.160533
18 17 20 100 0.171575
19 17 20 100 0.1677
20 17 20 100 0.223624
0 18 20 100 0.025879
1 18 20 100 0.00099663
2 18 20 100 0.00314794
3 18 20 100 0.0019866
4 18 20 100 0.00101617
5 18 20 100 1.81663e-05
6 18 20 100 0.00232455
7 18 20 100 0.00105412
8 18 20 100 0.00744843
9 18 20 100 0.00214508
10 18 20 100 0.00429854
11 18 20 100 0.00219808
12 18 20 100 0.00822391
13 18 20 100 0.00999798
14 18 20 100 0.0193391
15 18 20 100 0.046548
16 18 20 100 0.0677032
17 18 20 100 0.134585
18 18 20 100 0.160223
19 18 20 100 0.227618
20 18 20 100 0.273249
0 19 20 100 0.0308431
1 19 20 100 0.000767432
2 19 20 100 0.00291906
3 19 20 100 0.00208903
4 19 20 100 0.00148423
5 19 20 100 4.29429e-05
6 19 20 100 0.00146206
7 19 20 100 0.00147129
8 19 20 100 0.00144421
9 19 20 100 0.00296051
10 19 20 100 0.0016829
11 19 20 100 0.00147017
12 19 20 100 0.00902378
13 19 20 100 0.00728784
14 19 20 100 0.0166466
15 19 20 100 0.0227493
16 19 20 100 0.059346
17 19 20 100 0.110768
18 19 20 100 0.176341
19 19 20 100 0.211181
20 19 20 100 0.33802
0 20 20 100 0.0317941
1 20 20 100 0.00238598
2 20 20 100 1.01253e-06
3 20 20 100 0.00243055
4 20 20 100 3.28997e-05
5 20 20 100 0.00479022
6 20 20 100 0.00475188
7 20 20 100 0.00238414
8 20 20 100 0.000289507
9 20 20 100 0.00881013
10 20 20 100 0.00444532
11 20 20 100 0.000651335
12 20 20 100 1.52082e-06
13 20 20 100 0.0116585
14 20 20 100 0.00475904
15 20 20 100 0.00952608
16 20 20 100 0.0432695
17 20 20 100 0.0928169
18 20 20 100 0.150617
19 20 20 100 0.240112
20 20 20 100 0.384472
0 21 20 100 0.0303048
1 21 20 100 0.0025599
2 21 20 100 0.00456951
3 21 20 100 0.00321058
4 21 20 100 0.0045461
5 21 20 100 0.000593372
6 21 20 100 0.0090934
7 21 20 100 0.00476532
8 21 20 100 6.50062e-07
9 21 20 100 0.00441907
10 21 20 100 0.00910643
11 21 20 100 0.00452492
12 21 20 100 6.39285e-07
13 21 20 100 0.00382604
14 21 20 100 0.00460582
15 21 20 100 0.00466097
16 21 20 100 0.0315638
17 21 20 100 0.0523354
18 21 20 100 0.181727
19 21 20 100 0.177152
20 21 20 100 0.466434
0 22 20 100 0.073179
1 22 20 100 2.70495e-07
2 22 20 100 3.82533e-05
3 22 20 100 0.0249144
4 22 20 100 7.60137e-06
5 22 20 100 0.0168135
6 22 20 100 0.00840338
8 22 20 100 0.00723182
9 22 20 100 0.00774533
10 22 20 100 4.04751e-06
11 22 20 100 0.0420696
12 22 20 100 3.68219e-06
13 22 20 100 0.000103712
14 22 20 100 0.00843337
15 22 20 100 0.00841451
16 22 20 100 0.00845239
17 22 20 100 0.025654
18 22 20 100 0.0935307
19 22 20 100 0.285493
20 22 20 100 0.389507
0 23 20 100 0.0262906
1 23 20 100 5.47258e-07
2 23 20 100 2.30911e-06
3 23 20 100 6.40546e-05
5 23 20 100 0.016129
6 23 20 100 3.09112e-06
8 23 20 100 1.6744e-07
10 23 20 100 0.0257704
11 23 20 100 0.0164818
12 23 20 100 0.0386346
14 23 20 100 0.0161329
15 23 20 100 0.0341001
17 23 20 100 0.0675904
18 23 20 100 0.0324233
19 23 20 100 0.178173
20 23 20 100 0.548204
0 24 20 100 0.124527
3 24 20 100 4.82695e-06
4 24 20 100 2.59874e-05
5 24 20 100 6.50141e-06
7 24 20 100 1.16954e-05
8 24 20 100 5.38805e-05
9 24 20 100 0.0403264
10 24 20 100 0.0393532
11 24 20 100 0.000165004
13 24 20 100 0.0454547
14 24 20 100 0.000131593
16 24 20 100 0.0586813
18 24 20 100 0.0945489
19 24 20 100 0.0911186
20 24 20 100 0.50559
0 25 20 100 2.39011e-05
1 25 20 100 0.075768
3 25 20 100 0.0234491
6 25 20 100 7.14646e-06
13 25 20 100 0.1
14 25 20 100 0.0999806
16 25 20 100 0.1
18 25 20 100 0.1
19 25 20 100 0.2
20 25 20 100 0.30077
0 26 20 100 0.166654
2 26 20 100 0.000546286
4 26 20 100 5.32789e-05
8 26 20 100 2.92284e-06
9 26 20 100 1.76858e-06
10 26 20 100 5.77693e-05
14 26 20 100 0.166163
15 26 20 100 0.33316
16 26 20 100 2.47481e-06
17 26 20 100 0.166658
18 26 20 100 7.48191e-06
19 26 20 100 2.46384e-05
20 26 20 100 0.166667
0 27 20 100 4.19145e-05
3 27 20 100 0.19991
6 27 20 100 2.87008e-05
10 27 20 100 0.2
16 27 20 100 0.199969
17 27 20 100 0.2
20 27 20 100 0.20005
0 28 20 100 0.187058
1 28 20 100 0.037455
3 28 20 100 7.92644e-05
4 28 20 100 0.000101388
9 28 20 100 0.00585714
10 28 20 100 0.2
16 28 20 100 0.00690446
17 28 20 100 0.162927
18 28 20 100 0.199618
19 28 20 100 0.2
0 29 20 100 0.332078
2 29 20 100 0.00106627
4 29 20 100 6.70217e-05
9 29 20 100 3.48955e-06
10 29 20 100 0.000113963
14 29 20 100 2.97103e-05
16 29 20 100 0.333338
19 29 20 100 0.333304
3 30 20 100 0.00110226
5 30 20 100 0.000734238
6 30 20 100 0.498158
20 30 20 100 0.500006
6 31 20 100 1
0 1 21 100 0.0282535
1 1 21 100 0.774551
2 1 21 100 0.0746041
3 1 21 100 0.0361589
4 1 21 100 0.026888
5 1 21 100 0.0198472
6 1 21 100 0.0126945
7 1 21 100 0.0073112
8 1 21 100 0.00318378
9 1 21 100 0.00138006
10 1 21 100 0.0012611
11 1 21 100 0.00312203
12 1 21 100 0.000128238
13 1 21 100 0.00131223
14 1 21 100 0.000390996
15 1 21 100 0.000568213
16 1 21 100 0.000952102
17 1 21 100 0.00167124
18 1 21 100 0.00055186
19 1 21 100 0.000561891
20 1 21 100 0.000833712
21 1 21 100 0.003774
0 2 21 100 0.0146991
1 2 21 100 0.0737825
2 2 21 100 0.469444
3 2 21 100 0.178661
4 2 21 100 0.137049
5 2 21 100 0.0455139
6 2 21 100 0.0265411
7 2 21 100 0.0212295
8 2 21 100 0.00973806
9 2 21 100 0.00657322
10 2 21 100 0.00225692
11 2 21 100 0.00202136
12 2 21 100 0.00115914
13 2 21 100 0.000743722
14 2 21 100 0.00107186
15 2 21 100 0.00151727
16 2 21 100 0.000660367
17 2 21 100 0.00101921
18 2 21 100 0.00201568
19 2 21 100 0.00164955
20 2 21 100 0.00157041
21 2 21 100 0.00108372
0 3 21 100 0.0229901
1 3 21 100 0.0349201
2 3 21 100 0.206619
3 3 21 100 0.386482
4 3 21 100 0.15217
5 3 21 100 0.0890275
6 3 21 100 0.0360713
7 3 21 100 0.0241416
8 3 21 100 0.0138016
9 3 21 100 0.00792637
10 3 21 100 0.00610235
11 3 21 100 0.0040423
12 3 21 100 0.00154535
13 3 21 100 0.00206825
14 3 21 100 9.18799e-05
15 3 21 100 0.00157467
16 3 21 100 0.00214288
17 3 21 100 0.0010901
18 3 21 100 0.00251376
19 3 21 100 0.000587354
20 3 21 100 0.00154304
21 3 21 100 0.00254846
0 4 21 100 0.0229077
1 4 21 100 0.0174867
2 4 21 100 0.0603649
3 4 21 100 0.11834
4 4 21 100 0.354067
5 4 21 100 0.193759
6 4 21 100 0.102444
7 4 21 100 0.0540376
8 4 21 100 0.0290453
9 4 21 100 0.012188
10 4 21 100 0.0106323
11 4 21 100 0.00459899
12 4 21 100 0.00624327
13 4 21 100 0.00106224
14 4 21 100 0.00159196
15 4 21 100 0.00110013
16 4 21 100 0.00135386
17 4 21 100 0.00153985
18 4 21 100 0.00252611
19 4 21 100 0.00116718
20 4 21 100 0.00152831
21 4 21 100 0.00201544
0 5 21 100 0.0228392
1 5 21 100 0.0142132
2 5 21 100 0.0244355
3 5 21 100 0.036802
4 5 21 100 0.0997753
5 5 21 100 0.308615
6 5 21 100 0.212094
7 5 21 100 0.12116
8 5 21 100 0.0663699
9 5 21 100 0.0314889
10 5 21 100 0.0213545
11 5 21 100 0.0115131
12 5 21 100 0.00487041
13 5 21 100 0.00613452
14 5 21 100 0.00604217
15 5 21 100 0.00261077
16 5 21 100 0.0025018
17 5 21 100 0.00104887
18 5 21 100 0.00108274
19 5 21 100 0.00148568
20 5 21 100 0.00223389
21 5 21 100 0.00132945
0 6 21 100 0.0263599
1 6 21 100 0.00547673
2 6 21 100 0.0117356
3 6 21 100 0.0190102
4 6 21 100 0.039474
5 6 21 100 0.113218
6 6 21 100 0.253192
7 6 21 100 0.212144
8 6 21 100 0.138195
9 6 21 100 0.0729826
10 6 21 100 0.0413915
11 6 21 100 0.0232672
12 6 21 100 0.0116323
13 6 21 100 0.00617814
14 6 21 100 0.00659194
15 6 21 100 0.00577532
16 6 21 100 0.00357288
17 6 21 100 0.00146883
18 6 21 100 0.000738485
19 6 21 100 0.00156938
20 6 21 100 0.00288146
21 6 21 100 0.00314434
0 7 21 100 0.0206314
1 7 21 100 0.00375137
2 7 21 100 0.00835771
3 7 21 100 0.00981242
4 7 21 100 0.0184379
5 7 21 100 0.0359858
6 7 21 100 0.114
7 7 21 100 0.222857
8 7 21 100 0.189841
9 7 21 100 0.148817
10 7 21 100 0.0908104
11 7 21 100 0.0554286
12 7 21 100 0.0313893
13 7 21 100 0.013728
14 7 21 100 0.00951994
15 7 21 100 0.0110269
16 7 21 100 0.00458308
17 7 21 100 0.00239825
18 7 21 100 0.00206888
19 7 21 100 0.00215267
20 7 21 100 0.00137476
21 7 21 100 0.00302882
0 8 21 100 0.0226764
1 8 21 100 0.00547775
2 8 21 100 0.00603773
3 8 21 100 0.00483387
4 8 21 100 0.0123876
5 8 21 100 0.0173853
6 8 21 100 0.0359059
7 8 21 100 0.0905758
8 8 21 100 0.212615
9 8 21 100 0.197595
10 8 21 100 0.147898
11 8 21 100 0.099952
12 8 21 100 0.0560926
13 8 21 100 0.0346155
14 8 21 100 0.0174482
15 8 21 100 0.00960183
16 8 21 100 0.00839461
17 8 21 100 0.00665962
18 8 21 100 0.00243677
19 8 21 100 0.0027232
20 8 21 100 0.00514515
